{"learner":{"attributes":{"best_iteration":"98","best_score":"0.3848874571871533","scikit_learn":"{\"_estimator_type\": \"classifier\"}"},"feature_names":["clay_0_5","clay_5_15","clay_15_30","clay_30_60","clay_60_100","clay_100_200","sand_0_5","sand_5_15","sand_15_30","sand_30_60","sand_60_100","sand_100_200","silt_0_5","silt_5_15","silt_15_30","silt_30_60","silt_60_100","silt_100_200","bd_0_5","bd_5_15","bd_15_30","bd_30_60","bd_60_100","bd_100_200","om_0_5","om_5_15","om_15_30","om_30_60","om_60_100","om_100_200","ph_0_5","ph_5_15","ph_15_30","ph_30_60","ph_60_100","ph_100_200","ksat_0_5","ksat_5_15","ksat_15_30","ksat_30_60","ksat_60_100","ksat_100_200","theta_r_0_5","theta_r_5_15","theta_r_15_30","theta_r_30_60","theta_r_60_100","theta_r_100_200","theta_s_0_5","theta_s_5_15","theta_s_15_30","theta_s_30_60","theta_s_60_100","theta_s_100_200","caco3","cec","ec","sar","kw_025","resdept","soil_depth","wind_erodibility","rf_025","water_storage","ann_rain","temp_range","elevation","slope","aspect","dist_drain"],"feature_types":["float","float","float","float","float","float","float","float","float","float","float","float","float","float","float","float","float","float","float","float","float","float","float","float","float","float","float","float","float","float","float","float","float","float","float","float","float","float","float","float","float","float","float","float","float","float","float","float","float","float","float","float","float","float","float","float","float","float","float","float","float","float","float","float","float","float","float","float","float","float"],"gradient_booster":{"model":{"gbtree_model_param":{"num_parallel_tree":"1","num_trees":"100"},"iteration_indptr":[0,1,2,3,4,5,6,7,8,9,10,11,12,13,14,15,16,17,18,19,20,21,22,23,24,25,26,27,28,29,30,31,32,33,34,35,36,37,38,39,40,41,42,43,44,45,46,47,48,49,50,51,52,53,54,55,56,57,58,59,60,61,62,63,64,65,66,67,68,69,70,71,72,73,74,75,76,77,78,79,80,81,82,83,84,85,86,87,88,89,90,91,92,93,94,95,96,97,98,99,100],"tree_info":[0,0,0,0,0,0,0,0,0,0,0,0,0,0,0,0,0,0,0,0,0,0,0,0,0,0,0,0,0,0,0,0,0,0,0,0,0,0,0,0,0,0,0,0,0,0,0,0,0,0,0,0,0,0,0,0,0,0,0,0,0,0,0,0,0,0,0,0,0,0,0,0,0,0,0,0,0,0,0,0,0,0,0,0,0,0,0,0,0,0,0,0,0,0,0,0,0,0,0,0],"trees":[{"base_weights":[6.7485054E-3,-8.1537807E-1,5.796667E-1,-8.433453E-2,-1.1737385E0,9.1075903E-1,-6.2305976E-2,3.6245447E-1,-6.013268E-1,-1.3471617E0,-1.9106616E-1,3.3366892E-1,1.1764903E0,4.1757917E-1,-7.591931E-1,6.5345174E-1,-1.3468029E-1,1.9517842E-1,-8.8349116E-1,-1.4415544E0,-1.6896586E-1,3.4516882E-2,-3.7972695E-1,6.6119254E-1,-5.7832655E-2,1.3549337E0,2.0998152E-1,-2.2412461E-1,6.15766E-1,-9.076818E-1,1.1911582E-1,7.4733007E-1,-1.9056533E-2,3.820607E-2,-3.983516E-1,-2.588349E-2,3.717442E-1,-9.798141E-1,9.106214E-3,-1.4622889E0,2.9226255E-3,-3.885777E-1,1.7254424E-1,-6.278965E-1,2.0715468E-1,7.50911E-1,-2.2521682E-2,-6.031229E-1,2.9072586E-1,1.4334837E0,-6.985174E-2,-2.7195248E-1,4.5332065E-1,3.4254093E-2,-4.4769222E-1,7.698759E-1,-4.687421E-2,-9.75665E-1,5.4316847E-3,-2.588349E-2,3.819454E-2,-1.6110027E-3,9.8577775E-2,-7.808508E-2,3.043311E-2,5.2056484E-2,-4.5654024E-3,-1.234704E-1,2.9226255E-3,-1.7802206E-1,2.9226255E-3,-5.216192E-2,2.9226255E-3,3.043311E-2,-8.144268E-3,-8.487972E-2,1.860718E-3,4.1749537E-2,-1.9056533E-2,-1.9056533E-2,9.963744E-2,-8.26002E-2,1.860718E-3,-3.345974E-2,6.861966E-2,1.7467189E-1,-8.7810523E-4,2.0798285E-2,-2.7586548E-2,1.678452E-2,-4.9084354E-2,-1.1343315E-2,7.4241616E-2,-7.0618115E-2,2.0798285E-2,1.0674139E-1,-1.4232122E-2,-1.6110027E-3,-1.2473473E-1],"categories":[],"categories_nodes":[],"categories_segments":[],"categories_sizes":[],"default_left":[0,0,0,0,0,0,0,0,0,0,0,0,0,0,0,0,0,0,0,0,0,0,0,0,0,0,0,0,0,0,0,0,0,0,0,0,0,0,0,0,0,0,0,0,0,0,0,0,0,0,0,0,0,0,0,0,0,0,0,0,0,0,0,0,0,0,0,0,0,0,0,0,0,0,0,0,0,0,0,0,0,0,0,0,0,0,0,0,0,0,0,0,0,0,0,0,0,0,0],"id":0,"left_children":[1,3,5,7,9,11,13,15,17,19,21,23,25,27,29,31,33,35,37,39,41,-1,43,45,47,49,51,53,55,57,59,61,-1,-1,63,-1,65,67,-1,69,-1,71,73,75,77,79,-1,81,83,85,87,89,91,-1,93,95,-1,97,-1,-1,-1,-1,-1,-1,-1,-1,-1,-1,-1,-1,-1,-1,-1,-1,-1,-1,-1,-1,-1,-1,-1,-1,-1,-1,-1,-1,-1,-1,-1,-1,-1,-1,-1,-1,-1,-1,-1,-1,-1],"loss_changes":[2.4200636E2,5.3807983E1,6.5188576E1,2.3039316E1,2.0077713E1,2.488272E1,4.3893852E1,9.315855E0,1.27717285E1,9.349365E0,5.120006E0,1.1370646E1,1.8403915E1,1.2115069E1,8.540266E0,4.634103E0,5.825982E0,2.954062E0,4.458517E0,3.763855E0,2.9304914E0,0E0,6.9201903E0,5.697613E0,1.2541894E1,1.361319E1,6.333581E0,5.2930493E0,1.4491034E1,3.7148628E0,2.42561E0,2.2062702E0,0E0,0E0,6.9874864E0,0E0,8.170314E-1,2.0502548E0,0E0,3.8562775E0,0E0,5.4398584E-1,6.5638167E-1,1.5801868E0,1.9320481E0,5.268465E0,0E0,1.4892693E0,9.105614E0,3.4499817E0,1.3743227E0,2.1117558E0,3.6886106E0,0E0,3.841514E0,8.05069E0,0E0,2.5310555E0,0E0,0E0,0E0,0E0,0E0,0E0,0E0,0E0,0E0,0E0,0E0,0E0,0E0,0E0,0E0,0E0,0E0,0E0,0E0,0E0,0E0,0E0,0E0,0E0,0E0,0E0,0E0,0E0,0E0,0E0,0E0,0E0,0E0,0E0,0E0,0E0,0E0,0E0,0E0,0E0,0E0],"parents":[2147483647,0,0,1,1,2,2,3,3,4,4,5,5,6,6,7,7,8,8,9,9,10,10,11,11,12,12,13,13,14,14,15,15,16,16,17,17,18,18,19,19,20,20,22,22,23,23,24,24,25,25,26,26,27,27,28,28,29,29,30,30,31,31,34,34,36,36,37,37,39,39,41,41,42,42,43,43,44,44,45,45,47,47,48,48,49,49,50,50,51,51,52,52,54,54,55,55,57,57],"right_children":[2,4,6,8,10,12,14,16,18,20,22,24,26,28,30,32,34,36,38,40,42,-1,44,46,48,50,52,54,56,58,60,62,-1,-1,64,-1,66,68,-1,70,-1,72,74,76,78,80,-1,82,84,86,88,90,92,-1,94,96,-1,98,-1,-1,-1,-1,-1,-1,-1,-1,-1,-1,-1,-1,-1,-1,-1,-1,-1,-1,-1,-1,-1,-1,-1,-1,-1,-1,-1,-1,-1,-1,-1,-1,-1,-1,-1,-1,-1,-1,-1,-1,-1],"split_conditions":[7.438632E0,3.952123E2,4.0902536E2,2.6385251E3,7.406879E0,1.2669578E0,7.0858255E-2,1.3744386E2,5.11116E-4,3.225578E2,1.8267804E2,2.0560652E3,1.3183939E3,1.2840176E1,9.874829E3,6.441347E2,6.024985E2,2.9555505E2,2.4818048E1,1.3574853E0,5.7326897E1,3.4516882E-2,2.0364343E2,-1.1756836E-1,6.584213E1,5.208661E2,1.3366853E3,1.0814519E3,8.266234E0,9.203425E2,4.1378687E2,1.5167641E1,-1.9056533E-2,3.820607E-2,2.3785698E3,-2.588349E-2,1.3522063E1,2.0614258E1,9.106214E-3,2.1247864E2,2.9226255E-3,2.2759976E2,3.4090186E2,4.9139723E-1,5.260995E2,1.2705078E1,-2.2521682E-2,4.8683667E-1,1.8650675E-1,-3.6507803E-1,9.71958E0,9.228026E-2,2.4037937E1,3.4254093E-2,4.5834363E2,6.445819E1,-4.687421E-2,1.29143305E1,5.4316847E-3,-2.588349E-2,3.819454E-2,-1.6110027E-3,9.8577775E-2,-7.808508E-2,3.043311E-2,5.2056484E-2,-4.5654024E-3,-1.234704E-1,2.9226255E-3,-1.7802206E-1,2.9226255E-3,-5.216192E-2,2.9226255E-3,3.043311E-2,-8.144268E-3,-8.487972E-2,1.860718E-3,4.1749537E-2,-1.9056533E-2,-1.9056533E-2,9.963744E-2,-8.26002E-2,1.860718E-3,-3.345974E-2,6.861966E-2,1.7467189E-1,-8.7810523E-4,2.0798285E-2,-2.7586548E-2,1.678452E-2,-4.9084354E-2,-1.1343315E-2,7.4241616E-2,-7.0618115E-2,2.0798285E-2,1.0674139E-1,-1.4232122E-2,-1.6110027E-3,-1.2473473E-1],"split_indices":[30,64,64,69,31,56,45,61,62,68,60,69,66,16,69,54,69,54,4,56,59,0,60,27,6,54,66,66,34,54,64,16,0,0,69,0,55,17,0,60,0,61,68,57,54,2,0,52,58,28,55,67,3,0,64,59,0,63,0,0,0,0,0,0,0,0,0,0,0,0,0,0,0,0,0,0,0,0,0,0,0,0,0,0,0,0,0,0,0,0,0,0,0,0,0,0,0,0,0],"split_type":[0,0,0,0,0,0,0,0,0,0,0,0,0,0,0,0,0,0,0,0,0,0,0,0,0,0,0,0,0,0,0,0,0,0,0,0,0,0,0,0,0,0,0,0,0,0,0,0,0,0,0,0,0,0,0,0,0,0,0,0,0,0,0,0,0,0,0,0,0,0,0,0,0,0,0,0,0,0,0,0,0,0,0,0,0,0,0,0,0,0,0,0,0,0,0,0,0,0,0],"sum_hessian":[4.8374957E2,1.9605968E2,2.8768988E2,7.058948E1,1.254702E2,1.8565794E2,1.0203195E2,4.027084E1,3.0318636E1,1.0191956E2,2.3550636E1,6.920341E1,1.1645453E2,6.398381E1,3.8048138E1,2.24268E1,1.784404E1,9.140544E0,2.1178091E1,9.12556E1,1.0663968E1,4.4329143E0,1.9117723E1,3.205434E1,3.714907E1,9.321607E1,2.323846E1,1.463486E1,4.934895E1,3.2116776E1,5.931364E0,2.1178091E1,1.2487082E0,5.4193935E0,1.2424646E1,1.7481915E0,7.3923526E0,1.895539E1,2.2227006E0,9.001938E1,1.2362211E0,5.2320876E0,5.431881E0,1.2699363E1,6.41836E0,3.055589E1,1.4984498E0,1.0214434E1,2.6934637E1,8.82587E1,4.9573717E0,7.2050467E0,1.6033413E1,3.196693E0,1.1438168E1,4.5852566E1,3.496383E0,2.9644333E1,2.4724422E0,1.7481915E0,4.1831727E0,2.9719255E0,1.8206165E1,8.978212E0,3.4464347E0,5.656648E0,1.7357044E0,1.771917E1,1.2362211E0,8.878316E1,1.2362211E0,3.9958663E0,1.2362211E0,3.4464347E0,1.9854461E0,9.977179E0,2.722184E0,5.169652E0,1.2487082E0,1.2487082E0,2.9307182E1,7.4922495E0,2.722184E0,8.940751E0,1.7993885E1,8.6772736E1,1.4859627E0,1.4734757E0,3.483896E0,1.7232174E0,5.481829E0,5.2071133E0,1.0826301E1,9.964691E0,1.4734757E0,4.039571E1,5.456855E0,2.9719255E0,2.6672407E1],"tree_param":{"num_deleted":"0","num_feature":"70","num_nodes":"99","size_leaf_vector":"1"}},{"base_weights":[-5.0883353E-2,-8.893594E-1,4.4012037E-1,-6.732888E-2,-1.1264149E0,8.9444566E-1,-1.0897709E-1,-5.031327E-1,4.9544698E-1,-1.1684872E0,1.4556306E-2,3.226449E-1,1.1817282E0,3.893551E-1,-4.597844E-1,2.9279547E-2,-6.4512825E-1,6.627959E-1,-2.9006608E-2,-3.8640743E-1,-1.3001544E0,-2.8277528E-1,5.3909683E-1,1.3396368E0,7.2034284E-2,6.632476E-1,-1.8831952E-1,1.8128915E-1,-5.983346E-1,-7.5574034E-1,7.142899E-2,7.5010145E-1,-8.280269E-3,1.5845796E-1,-6.396199E-1,-1.3368647E0,-1.0084893E-2,-4.4991744E-1,2.8774101E-2,-2.519841E-1,7.038175E-1,1.3365169E-3,1.355035E0,-2.8558597E-1,3.8611552E-1,-2.0859284E-2,7.6620424E-1,-6.695336E-1,4.7119313E-1,4.3762502E-1,-2.5544357E-1,-7.6757014E-1,1.3626483E-1,-1.0279394E-1,1.0394232E-2,3.0633071E-2,-2.2231018E-2,9.569673E-2,-1.2104554E-3,-2.405202E-2,4.2610478E-2,-9.3966305E-2,1.1488237E-2,-3.5487723E-3,-1.624652E-1,-2.3658564E-2,2.2713954E-2,-7.016071E-2,1.29224565E-2,2.0417305E-2,-5.3245347E-2,-2.8265724E-2,9.990352E-2,1.4606819E-3,1.6448174E-1,1.1505918E-2,-5.169545E-2,-7.984816E-3,5.7637025E-2,9.725389E-2,-5.7166982E-3,2.8581E-3,-8.6122036E-2,-8.934691E-3,6.874226E-2,6.404059E-2,-8.69758E-3,-4.8253424E-2,1.6302617E-2,6.906062E-3,-1.0891792E-1,4.8061408E-2,-2.6878122E-2],"categories":[],"categories_nodes":[],"categories_segments":[],"categories_sizes":[],"default_left":[0,0,0,0,0,0,0,0,0,0,0,0,0,0,0,0,0,0,0,0,0,0,0,0,0,0,0,0,0,0,0,0,0,0,0,0,0,0,0,0,0,0,0,0,0,0,0,0,0,0,0,0,0,0,0,0,0,0,0,0,0,0,0,0,0,0,0,0,0,0,0,0,0,0,0,0,0,0,0,0,0,0,0,0,0,0,0,0,0,0,0,0,0],"id":1,"left_children":[1,3,5,7,9,11,13,15,17,19,-1,21,23,25,27,-1,29,31,-1,33,35,37,39,41,43,45,47,49,51,53,55,57,-1,59,61,63,65,67,-1,69,71,-1,73,75,77,-1,79,81,83,85,87,89,91,-1,-1,-1,-1,-1,-1,-1,-1,-1,-1,-1,-1,-1,-1,-1,-1,-1,-1,-1,-1,-1,-1,-1,-1,-1,-1,-1,-1,-1,-1,-1,-1,-1,-1,-1,-1,-1,-1,-1,-1],"loss_changes":[2.0499234E2,3.4638336E1,8.0062225E1,1.7730463E1,9.556412E0,2.287059E1,2.9961678E1,6.56147E0,6.4068937E0,6.709442E0,0E0,1.2617474E1,1.7864365E1,1.3357492E1,1.037104E1,0E0,3.772931E0,2.7223701E0,0E0,7.2151747E0,5.104843E0,4.2910156E0,1.0900024E1,1.7298279E0,4.9766703E0,6.5270634E0,1.5848786E1,4.9241753E0,1.2066248E1,3.97505E0,1.592046E0,1.146101E0,0E0,2.8401203E0,4.410962E0,1.8201294E0,1.2390965E0,3.0784287E0,0E0,2.9083402E0,9.747421E0,0E0,1.7333069E0,1.863403E0,1.4228234E0,0E0,2.3641453E0,1.1393385E0,1.9477887E0,1.7466083E0,1.97873E0,8.977055E0,4.0633264E0,0E0,0E0,0E0,0E0,0E0,0E0,0E0,0E0,0E0,0E0,0E0,0E0,0E0,0E0,0E0,0E0,0E0,0E0,0E0,0E0,0E0,0E0,0E0,0E0,0E0,0E0,0E0,0E0,0E0,0E0,0E0,0E0,0E0,0E0,0E0,0E0,0E0,0E0,0E0,0E0],"parents":[2147483647,0,0,1,1,2,2,3,3,4,4,5,5,6,6,7,7,8,8,9,9,11,11,12,12,13,13,14,14,16,16,17,17,19,19,20,20,21,21,22,22,23,23,24,24,25,25,26,26,27,27,28,28,29,29,30,30,31,31,33,33,34,34,35,35,36,36,37,37,39,39,40,40,42,42,43,43,44,44,46,46,47,47,48,48,49,49,50,50,51,51,52,52],"right_children":[2,4,6,8,10,12,14,16,18,20,-1,22,24,26,28,-1,30,32,-1,34,36,38,40,42,44,46,48,50,52,54,56,58,-1,60,62,64,66,68,-1,70,72,-1,74,76,78,-1,80,82,84,86,88,90,92,-1,-1,-1,-1,-1,-1,-1,-1,-1,-1,-1,-1,-1,-1,-1,-1,-1,-1,-1,-1,-1,-1,-1,-1,-1,-1,-1,-1,-1,-1,-1,-1,-1,-1,-1,-1,-1,-1,-1,-1],"split_conditions":[7.3919005E0,3.8697507E2,2.0232217E2,2.397353E1,1.4704516E0,1.2669578E0,7.56094E0,1.4513951E2,5.2400867E2,-3.62E-6,1.4556306E-2,3.3278522E-1,1.3140669E3,5.563864E-1,3.8890973E2,2.9279547E-2,-2.2815122E-1,1.0986523E-2,-2.9006608E-2,5.87691E-1,4.439164E2,1.2320958E0,7.035149E0,2.6753714E1,1.3440791E3,7.4734683E0,4.4072104E2,9.3631935E1,1.4704516E0,2.3312161E2,-2.2350731E-1,-1.6535155E-1,-8.280269E-3,8.150309E0,5.566361E2,6.316258E-2,6.661149E-2,3.8074783E1,2.8774101E-2,-2.2728516E-1,9.539101E0,1.3365169E-3,-7.98824E-1,8.8457855E2,2.3076023E1,-2.0859284E-2,2.5635345E1,3.6842178E2,1.5302123E1,1.7812805E1,2.4697845E1,-2.54E-6,4.6249512E2,-1.0279394E-1,1.0394232E-2,3.0633071E-2,-2.2231018E-2,9.569673E-2,-1.2104554E-3,-2.405202E-2,4.2610478E-2,-9.3966305E-2,1.1488237E-2,-3.5487723E-3,-1.624652E-1,-2.3658564E-2,2.2713954E-2,-7.016071E-2,1.29224565E-2,2.0417305E-2,-5.3245347E-2,-2.8265724E-2,9.990352E-2,1.4606819E-3,1.6448174E-1,1.1505918E-2,-5.169545E-2,-7.984816E-3,5.7637025E-2,9.725389E-2,-5.7166982E-3,2.8581E-3,-8.6122036E-2,-8.934691E-3,6.874226E-2,6.404059E-2,-8.69758E-3,-4.8253424E-2,1.6302617E-2,6.906062E-3,-1.0891792E-1,4.8061408E-2,-2.6878122E-2],"split_indices":[30,64,60,5,56,56,30,69,54,62,0,67,66,67,64,0,26,62,0,56,64,57,55,69,66,32,64,68,56,61,26,25,0,55,54,67,45,12,0,24,12,0,40,69,3,0,5,65,55,0,2,62,54,0,0,0,0,0,0,0,0,0,0,0,0,0,0,0,0,0,0,0,0,0,0,0,0,0,0,0,0,0,0,0,0,0,0,0,0,0,0,0,0],"split_type":[0,0,0,0,0,0,0,0,0,0,0,0,0,0,0,0,0,0,0,0,0,0,0,0,0,0,0,0,0,0,0,0,0,0,0,0,0,0,0,0,0,0,0,0,0,0,0,0,0,0,0,0,0,0,0,0,0,0,0,0,0,0,0,0,0,0,0,0,0,0,0,0,0,0,0,0,0,0,0,0,0,0,0,0,0,0,0,0,0,0,0,0,0],"sum_hessian":[4.6866153E2,1.6859167E2,3.0006985E2,4.204696E1,1.26544716E2,1.5904301E2,1.4102684E2,2.459259E1,1.7454369E1,1.2333832E2,3.2063947E0,6.3834553E1,9.5208466E1,5.7581856E1,8.3444984E1,2.2066965E0,2.2385893E1,1.5458413E1,1.9959555E0,2.6277222E1,9.70611E1,1.5601288E1,4.8233265E1,8.06271E1,1.4581366E1,3.755427E1,2.0027586E1,1.4007058E1,6.943793E1,1.8681818E1,3.7040741E0,1.3475569E1,1.9828446E0,1.0118107E1,1.6159115E1,9.38465E1,3.2145982E0,1.34003315E1,2.2009559E0,6.9429293E0,4.1290333E1,1.2199969E0,7.94071E1,7.454447E0,7.1269193E0,2.9822426E0,3.457203E1,1.1447205E1,8.58038E0,8.807145E0,5.1999125E0,5.5889072E1,1.3548853E1,1.645713E1,2.2246878E0,2.2063398E0,1.4977345E0,1.1992559E1,1.4830092E0,3.478635E0,6.6394715E0,1.2707536E1,3.451578E0,1.7332096E0,9.211329E1,1.7443557E0,1.4702426E0,1.0205774E1,3.194558E0,2.6958976E0,4.2470317E0,3.4754186E0,3.7814915E1,1.221713E0,7.818539E1,3.4600992E0,3.9943473E0,1.9861064E0,5.140813E0,3.284876E1,1.7232698E0,1.2355645E0,1.021164E1,1.977918E0,6.6024623E0,6.8284388E0,1.9787066E0,3.4807374E0,1.7191749E0,9.393728E0,4.6495342E1,6.8487616E0,6.7000914E0],"tree_param":{"num_deleted":"0","num_feature":"70","num_nodes":"93","size_leaf_vector":"1"}},{"base_weights":[7.4798375E-2,6.9933665E-1,-4.4806653E-1,-5.7409066E-1,8.967457E-1,-1.1137986E0,-1.7184849E-1,-7.5272244E-1,8.519382E-2,4.043374E-1,1.1337506E0,1.9388748E-2,-1.2019007E0,-4.1843137E-1,3.7303078E-1,-8.559585E-1,1.1978969E-2,-2.2637457E-2,2.4920942E-1,-5.6953736E-2,6.8348676E-1,1.1907202E0,-6.914742E-2,-1.304803E0,-7.8234166E-2,3.6250916E-1,-5.288594E-1,5.507509E-1,-4.4021463E-1,-1.09051846E-1,3.7115933E-3,-3.8729429E-3,3.673537E-2,-4.2371446E-1,3.0720907E-1,-3.9310925E-2,8.406721E-1,1.2250441E0,-1.9797182E-2,-3.5444964E-2,2.6014386E-2,5.42713E-3,-1.608611E-1,-3.1056067E-2,1.4189026E-1,5.0476617E-1,-2.3190713E-2,-9.312356E-2,-7.6242447E-1,-3.331086E-1,7.0248073E-1,-6.0091086E-2,5.0581233E-3,-6.588282E-2,1.2047564E-2,5.6638505E-2,-2.516404E-2,-2.0001004E-2,2.0843295E-2,-2.4518666E-3,1.0862237E-1,-5.6006894E-3,1.4991525E-1,3.182221E-2,-1.2160332E-2,7.179316E-2,-8.93902E-3,3.272687E-2,-5.2996345E-2,-1.1384824E-1,-4.8216907E-3,1.3197209E-3,-4.4350855E-2,-1.8504942E-2,1.0398808E-1],"categories":[],"categories_nodes":[],"categories_segments":[],"categories_sizes":[],"default_left":[0,0,0,0,0,0,0,0,0,0,0,0,0,0,0,0,0,0,0,0,0,0,0,0,0,0,0,0,0,0,0,0,0,0,0,0,0,0,0,0,0,0,0,0,0,0,0,0,0,0,0,0,0,0,0,0,0,0,0,0,0,0,0,0,0,0,0,0,0,0,0,0,0,0,0],"id":2,"left_children":[1,3,5,7,9,11,13,15,17,19,21,-1,23,25,27,29,-1,-1,31,33,35,37,39,41,43,45,47,49,51,-1,-1,-1,-1,53,55,57,59,61,-1,-1,-1,-1,-1,-1,63,65,-1,67,69,71,73,-1,-1,-1,-1,-1,-1,-1,-1,-1,-1,-1,-1,-1,-1,-1,-1,-1,-1,-1,-1,-1,-1,-1,-1],"loss_changes":[1.6193764E2,6.43544E1,4.70051E1,5.5998125E0,1.6569244E1,1.1542351E1,3.048024E1,4.1430874E0,1.6874701E0,1.1991827E1,9.959183E0,0E0,6.980728E0,1.5919449E1,1.4213397E1,1.8531418E0,0E0,0E0,4.7088885E-1,8.262713E0,6.8973866E0,8.725922E0,2.24991E0,4.114128E0,1.4305257E0,3.64832E0,1.304224E1,1.2457581E1,9.4336176E-1,0E0,0E0,0E0,0E0,2.7867942E0,4.244525E0,1.0960646E0,2.8857498E0,4.6101685E0,0E0,0E0,0E0,0E0,0E0,0E0,9.927295E-1,2.0853953E0,0E0,1.0152904E1,1.1290592E1,3.1142044E-1,1.0687359E1,0E0,0E0,0E0,0E0,0E0,0E0,0E0,0E0,0E0,0E0,0E0,0E0,0E0,0E0,0E0,0E0,0E0,0E0,0E0,0E0,0E0,0E0,0E0,0E0],"parents":[2147483647,0,0,1,1,2,2,3,3,4,4,5,5,6,6,7,7,8,8,9,9,10,10,12,12,13,13,14,14,15,15,18,18,19,19,20,20,21,21,22,22,23,23,24,24,25,25,26,26,27,27,28,28,33,33,34,34,35,35,36,36,37,37,44,44,45,45,47,47,48,48,49,49,50,50],"right_children":[2,4,6,8,10,12,14,16,18,20,22,-1,24,26,28,30,-1,-1,32,34,36,38,40,42,44,46,48,50,52,-1,-1,-1,-1,54,56,58,60,62,-1,-1,-1,-1,-1,-1,64,66,-1,68,70,72,74,-1,-1,-1,-1,-1,-1,-1,-1,-1,-1,-1,-1,-1,-1,-1,-1,-1,-1,-1,-1,-1,-1,-1,-1],"split_conditions":[2.0160924E2,1.2331055E1,7.3898554E0,7.186728E1,1.2481825E0,3.9579204E-1,2.6449375E1,1.7877524E0,9.113475E1,1.4353907E0,1.7594617E2,1.9388748E-2,-7.522168E-1,1.1162005E1,7.154839E-2,2.3673009E2,1.1978969E-2,-2.2637457E-2,-8.7375975E-1,9.873039E-1,7.377411E0,5.713925E2,9.240039E-1,1.1026411E3,3.8293716E2,1.3651208E1,1.2091042E1,5.666423E1,2.0695963E2,-1.09051846E-1,3.7115933E-3,-3.8729429E-3,3.673537E-2,1.9204985E2,1.1746317E0,2.409371E-1,1.1972623E3,-8.462581E-1,-1.9797182E-2,-3.5444964E-2,2.6014386E-2,5.42713E-3,-1.608611E-1,-3.1056067E-2,8.674307E0,1.2980298E3,-2.3190713E-2,1.2289401E2,8.580641E-1,4.1127903E1,1.7044298E-1,-6.0091086E-2,5.0581233E-3,-6.588282E-2,1.2047564E-2,5.6638505E-2,-2.516404E-2,-2.0001004E-2,2.0843295E-2,-2.4518666E-3,1.0862237E-1,-5.6006894E-3,1.4991525E-1,3.182221E-2,-1.2160332E-2,7.179316E-2,-8.93902E-3,3.272687E-2,-5.2996345E-2,-1.1384824E-1,-4.8216907E-3,1.3197209E-3,-4.4350855E-2,-1.8504942E-2,1.0398808E-1],"split_indices":[60,15,31,59,56,56,63,56,54,19,61,0,29,63,44,61,0,0,29,56,32,54,67,66,65,55,0,59,60,0,0,0,0,60,56,58,66,40,0,0,0,0,0,0,55,66,0,68,67,59,58,0,0,0,0,0,0,0,0,0,0,0,0,0,0,0,0,0,0,0,0,0,0,0,0],"split_type":[0,0,0,0,0,0,0,0,0,0,0,0,0,0,0,0,0,0,0,0,0,0,0,0,0,0,0,0,0,0,0,0,0,0,0,0,0,0,0,0,0,0,0,0,0,0,0,0,0,0,0,0,0,0,0,0,0,0,0,0,0,0,0,0,0,0,0,0,0,0,0,0,0,0,0],"sum_hessian":[4.6651224E2,2.1027988E2,2.5623236E2,2.4381315E1,1.8589857E2,6.1799755E1,1.944326E2,1.7510883E1,6.870432E0,7.359204E1,1.12306526E2,3.1849735E0,5.861478E1,1.362529E2,5.8179703E1,1.556596E1,1.9449229E0,1.729819E0,5.1406126E0,3.2245815E1,4.134623E1,1.0737315E2,4.9333696E0,5.1482166E1,7.1326137E0,1.2637782E1,1.2361512E2,5.1719048E1,6.4606524E0,1.4342006E1,1.2239538E0,1.9570142E0,3.1835985E0,1.4843485E1,1.740233E1,9.394654E0,3.1951576E1,1.0613167E2,1.2414854E0,2.4777489E0,2.4556205E0,1.2234914E0,5.0258675E1,2.4705343E0,4.6620793E0,1.1158132E1,1.4796504E0,5.0459373E1,7.315575E1,4.9504576E0,4.6768593E1,5.2319813E0,1.2286708E0,1.1403934E1,3.4395509E0,1.4184286E1,3.218044E0,7.920985E0,1.4736689E0,2.9413483E0,2.9010227E1,1.7263697E0,1.044053E2,2.1951246E0,2.4669547E0,9.183194E0,1.9749376E0,2.6208855E1,2.4250519E1,5.4414898E1,1.874085E1,1.4789331E0,3.4715245E0,7.6630826E0,3.9105507E1],"tree_param":{"num_deleted":"0","num_feature":"70","num_nodes":"75","size_leaf_vector":"1"}},{"base_weights":[-1.629526E-2,-7.0176756E-1,3.5031942E-1,6.287548E-2,-9.534773E-1,7.135679E-1,-4.5128647E-2,5.649063E-1,-2.961816E-1,-1.0443985E0,5.152195E-2,-1.6961163E-1,8.835078E-1,3.336358E-1,-5.1277506E-1,6.380172E-1,-6.189748E-3,-6.0539067E-1,1.6431539E-1,-7.598647E-2,-1.0848855E0,3.3636525E-1,-3.945475E-2,-5.2157086E-1,4.0583137E-1,-1.1264293E-1,9.72165E-1,5.613596E-1,-2.659712E-1,2.241279E-1,-6.888641E-1,8.185302E-2,3.1409892E-3,-8.9526325E-2,6.0437568E-2,-2.8573288E-2,3.2488376E-1,-3.6876187E-2,2.7479103E-2,-1.1038443E0,6.449555E-3,5.0172985E-2,-6.80162E-3,-6.6168535E-1,1.6652169E-2,-6.128098E-3,5.712932E-2,-3.682217E-1,3.1626705E-2,1.0793468E0,1.6226208E-1,7.4483275E-1,-2.0091604E-1,-5.0829583E-1,3.2417434E-1,-3.58407E-2,4.6551245E-1,2.1001577E-1,-8.4307E-1,2.3920223E-2,-1.7608134E-2,5.75103E-2,-2.409285E-2,5.6090453E-3,-1.3468464E-1,4.7008954E-3,-8.9994855E-2,-5.758513E-2,1.0403317E-2,1.3909678E-1,9.238109E-3,-5.096665E-2,5.9261728E-2,-2.4882473E-2,9.808313E-2,-6.437052E-2,3.836681E-2,1.1851907E-2,-8.21736E-2,-3.99854E-3,4.6087116E-2,6.665813E-2,-7.780378E-3,-1.6487429E-2,4.3671995E-2,-1.0984378E-1,2.3369253E-2],"categories":[],"categories_nodes":[],"categories_segments":[],"categories_sizes":[],"default_left":[0,0,0,0,0,0,0,0,0,0,0,0,0,0,0,0,0,0,0,0,0,0,0,0,0,0,0,0,0,0,0,0,0,0,0,0,0,0,0,0,0,0,0,0,0,0,0,0,0,0,0,0,0,0,0,0,0,0,0,0,0,0,0,0,0,0,0,0,0,0,0,0,0,0,0,0,0,0,0,0,0,0,0,0,0,0,0],"id":3,"left_children":[1,3,5,7,9,11,13,15,17,19,21,23,25,27,29,31,-1,33,35,37,39,41,-1,43,45,47,49,51,53,55,57,-1,-1,-1,59,-1,61,-1,-1,63,-1,-1,-1,65,-1,-1,-1,67,-1,69,71,73,75,77,79,-1,81,83,85,-1,-1,-1,-1,-1,-1,-1,-1,-1,-1,-1,-1,-1,-1,-1,-1,-1,-1,-1,-1,-1,-1,-1,-1,-1,-1,-1,-1],"loss_changes":[1.26111565E2,3.453315E1,4.751326E1,1.2847632E1,1.2905273E1,2.799405E1,3.283063E1,1.8040476E0,7.6543503E0,3.5515594E0,4.39737E0,1.1330122E1,1.4561134E1,1.6370537E1,1.3004612E1,4.6361923E-1,0E0,3.4011822E0,3.0461075E0,2.5391638E0,3.3959808E0,1.0580759E0,0E0,4.296258E0,1.1258955E0,3.8975902E0,9.168198E0,1.3408983E1,8.000774E0,5.518686E0,1.2381981E1,0E0,0E0,0E0,9.8404694E-1,0E0,3.6508012E0,0E0,0E0,3.2360382E0,0E0,0E0,0E0,2.21169E0,0E0,0E0,0E0,1.7100224E0,0E0,8.046875E0,9.673227E0,7.2055626E0,7.341189E0,4.5767946E0,6.289816E-1,0E0,1.7080593E0,1.941592E0,7.392044E0,0E0,0E0,0E0,0E0,0E0,0E0,0E0,0E0,0E0,0E0,0E0,0E0,0E0,0E0,0E0,0E0,0E0,0E0,0E0,0E0,0E0,0E0,0E0,0E0,0E0,0E0,0E0,0E0],"parents":[2147483647,0,0,1,1,2,2,3,3,4,4,5,5,6,6,7,7,8,8,9,9,10,10,11,11,12,12,13,13,14,14,15,15,17,17,18,18,19,19,20,20,21,21,23,23,24,24,25,25,26,26,27,27,28,28,29,29,30,30,34,34,36,36,39,39,43,43,47,47,49,49,50,50,51,51,52,52,53,53,54,54,56,56,57,57,58,58],"right_children":[2,4,6,8,10,12,14,16,18,20,22,24,26,28,30,32,-1,34,36,38,40,42,-1,44,46,48,50,52,54,56,58,-1,-1,-1,60,-1,62,-1,-1,64,-1,-1,-1,66,-1,-1,-1,68,-1,70,72,74,76,78,80,-1,82,84,86,-1,-1,-1,-1,-1,-1,-1,-1,-1,-1,-1,-1,-1,-1,-1,-1,-1,-1,-1,-1,-1,-1,-1,-1,-1,-1,-1,-1],"split_conditions":[7.3711157E0,3.868092E2,2.0144357E2,2.371753E-3,1.2328396E0,9.600886E-1,5.0038908E-2,1.4909766E0,1.9191499E-1,2.008573E1,3.8334457E2,6.9157814E1,1.4022926E1,1.3097308E2,1.5684134E1,9.19454E-1,-6.189748E-3,8.944349E-1,7.439744E0,8.53277E0,6.5046186E0,6.899008E-1,-3.945475E-2,2.1315739E1,1.4575734E0,-4.1142493E-1,1.3067633E3,3.8434747E2,6.0331696E1,3.0649954E-1,3.858854E2,8.185302E-2,3.1409892E-3,-8.9526325E-2,1.7693966E1,-2.8573288E-2,5.226335E2,-3.6876187E-2,2.7479103E-2,1.0788495E3,6.449555E-3,5.0172985E-2,-6.80162E-3,6.435849E1,1.6652169E-2,-6.128098E-3,5.712932E-2,3.8793887E2,3.1626705E-2,4.149942E2,1.3346102E3,8.096374E0,1.2139172E3,6.629656E1,7.827865E-1,-3.58407E-2,1.4531411E0,8.155584E0,5.6664383E1,2.3920223E-2,-1.7608134E-2,5.75103E-2,-2.409285E-2,5.6090453E-3,-1.3468464E-1,4.7008954E-3,-8.9994855E-2,-5.758513E-2,1.0403317E-2,1.3909678E-1,9.238109E-3,-5.096665E-2,5.9261728E-2,-2.4882473E-2,9.808313E-2,-6.437052E-2,3.836681E-2,1.1851907E-2,-8.21736E-2,-3.99854E-3,4.6087116E-2,6.665813E-2,-7.780378E-3,-1.6487429E-2,4.3671995E-2,-1.0984378E-1,2.3369253E-2],"split_indices":[30,64,60,62,56,56,42,21,58,59,65,59,16,61,4,57,0,57,33,55,67,67,0,63,18,40,66,65,11,57,64,0,0,0,63,0,54,0,0,66,0,0,0,61,0,0,0,65,0,64,66,55,66,68,67,0,67,34,9,0,0,0,0,0,0,0,0,0,0,0,0,0,0,0,0,0,0,0,0,0,0,0,0,0,0,0,0],"split_type":[0,0,0,0,0,0,0,0,0,0,0,0,0,0,0,0,0,0,0,0,0,0,0,0,0,0,0,0,0,0,0,0,0,0,0,0,0,0,0,0,0,0,0,0,0,0,0,0,0,0,0,0,0,0,0,0,0,0,0,0,0,0,0,0,0,0,0,0,0,0,0,0,0,0,0,0,0,0,0,0,0,0,0,0,0,0,0],"sum_hessian":[4.721543E2,1.5975049E2,3.124038E2,4.235072E1,1.17399765E2,1.5654175E2,1.5586206E2,1.4073577E1,2.8277143E1,1.0712063E2,1.02791395E1,2.5265516E1,1.3127623E2,8.8489525E1,6.737254E1,1.2113196E1,1.9603806E0,1.4093865E1,1.4183278E1,6.0304227E0,1.010902E2,6.8682795E0,3.41086E0,1.6548319E1,8.717198E0,1.0397041E1,1.2087919E2,6.4826126E1,2.3663399E1,1.2204907E1,5.5167633E1,9.692095E0,2.4211009E0,1.0143614E1,3.950252E0,1.9791495E0,1.2204128E1,3.3644106E0,2.666012E0,9.988534E1,1.204862E0,4.8939776E0,1.9743018E0,1.3626406E1,2.9219131E0,1.707372E0,7.009826E0,6.380428E0,4.0166135E0,1.0234468E2,1.8534504E1,5.2526657E1,1.2299469E1,1.8250017E1,5.4133806E0,2.7306955E0,9.474212E0,7.283378E0,4.7884254E1,2.7044663E0,1.2457856E0,1.0457341E1,1.7467871E0,1.2209575E0,9.866438E1,2.457504E0,1.1168901E1,4.462212E0,1.9182158E0,9.2625145E1,9.719536E0,5.1696997E0,1.3364805E1,1.7440761E0,5.078258E1,7.203067E0,5.096402E0,5.5984116E0,1.2651606E1,1.7313626E0,3.6820183E0,7.4922595E0,1.9819518E0,2.7304926E0,4.5528855E0,4.6420383E1,1.4638717E0],"tree_param":{"num_deleted":"0","num_feature":"70","num_nodes":"87","size_leaf_vector":"1"}},{"base_weights":[3.321247E-2,5.00372E-1,-4.303884E-1,-4.1344273E-1,7.613889E-1,-9.39886E-1,-1.8674581E-1,-8.319317E-1,1.4526625E-1,8.8729393E-1,8.803662E-2,-9.862519E-1,3.73852E-2,2.4341944E-1,-5.096293E-1,5.6899544E-3,-8.791548E-1,4.8111305E-1,-2.3746234E-1,-3.201893E-2,9.4018155E-1,-3.9758742E-1,5.4850525E-1,-1.2787074E-2,-1.0337805E0,-1.7523568E-2,2.2358367E-2,5.671202E-1,-1.2534255E-1,3.310616E-1,-7.518296E-1,-9.2352074E-1,4.0354053E-3,7.1306296E-2,-1.16096E-2,-4.4376016E-1,1.409671E-1,-2.7106612E-3,1.0221355E0,1.6748518E-1,-5.8088106E-1,-5.46908E-2,6.6076976E-1,2.0799903E-2,-2.222795E-2,6.1057047E-3,-1.0640514E0,7.463819E-1,-1.5725027E-1,-4.2716318E-1,4.3484905E-1,-2.3139922E-1,5.123052E-1,-9.2069435E-1,7.782779E-2,1.7456006E-3,-1.1532687E-1,-5.924071E-2,3.7057435E-3,-2.2892512E-2,3.7729174E-2,3.668772E-2,-2.9394707E-2,1.2573056E-1,3.4761978E-3,-7.617434E-3,2.9179335E-2,3.5837688E-3,-7.523656E-2,2.2943133E-2,-2.9069355E-2,8.286727E-2,1.5405575E-3,-1.3128625E-1,3.4553749E-3,-2.884295E-3,9.3837306E-2,-4.800251E-2,2.7951559E-2,3.3188894E-2,-1.0002739E-1,-1.3704629E-2,6.739556E-2,5.097461E-3,-3.4332264E-2,7.333081E-2,-6.367649E-3,-1.3424933E-1,1.1051458E-2,4.6330348E-2,-4.257076E-2],"categories":[],"categories_nodes":[],"categories_segments":[],"categories_sizes":[],"default_left":[0,0,0,0,0,0,0,0,0,0,0,0,0,0,0,0,0,0,0,0,0,0,0,0,0,0,0,0,0,0,0,0,0,0,0,0,0,0,0,0,0,0,0,0,0,0,0,0,0,0,0,0,0,0,0,0,0,0,0,0,0,0,0,0,0,0,0,0,0,0,0,0,0,0,0,0,0,0,0,0,0,0,0,0,0,0,0,0,0,0,0],"id":4,"left_children":[1,3,5,7,9,11,13,15,17,19,21,23,25,27,29,-1,31,33,35,-1,37,39,41,43,45,-1,-1,47,49,51,53,55,-1,-1,-1,57,59,61,63,65,67,69,71,-1,-1,-1,73,75,77,79,81,83,85,87,89,-1,-1,-1,-1,-1,-1,-1,-1,-1,-1,-1,-1,-1,-1,-1,-1,-1,-1,-1,-1,-1,-1,-1,-1,-1,-1,-1,-1,-1,-1,-1,-1,-1,-1,-1,-1],"loss_changes":[1.0629426E2,6.291296E1,2.8017899E1,1.6759113E1,1.5363632E1,4.003937E0,2.7661034E1,2.2355824E0,6.87398E0,1.36918335E1,1.3865308E1,3.1910782E0,8.9714247E-1,1.1785263E1,2.6326363E1,0E0,1.9872799E0,2.583869E0,3.1872268E0,0E0,1.2316772E1,4.7483215E0,2.6157036E0,1.0785173E0,3.099228E0,0E0,0E0,8.3226795E0,1.196073E1,5.3697605E0,1.3785675E1,1.4898243E0,0E0,0E0,0E0,7.560158E-1,2.1394637E0,3.1903265E0,3.2644043E0,5.7097334E-1,1.0503111E0,1.555186E0,3.8748074E-1,0E0,0E0,0E0,2.7167969E0,1.4644585E0,3.5208867E0,1.5707342E1,2.8020391E0,4.6574008E-1,2.235197E0,1.6900696E1,5.944801E0,0E0,0E0,0E0,0E0,0E0,0E0,0E0,0E0,0E0,0E0,0E0,0E0,0E0,0E0,0E0,0E0,0E0,0E0,0E0,0E0,0E0,0E0,0E0,0E0,0E0,0E0,0E0,0E0,0E0,0E0,0E0,0E0,0E0,0E0,0E0,0E0],"parents":[2147483647,0,0,1,1,2,2,3,3,4,4,5,5,6,6,7,7,8,8,9,9,10,10,11,11,12,12,13,13,14,14,16,16,17,17,18,18,20,20,21,21,22,22,23,23,24,24,27,27,28,28,29,29,30,30,31,31,35,35,36,36,37,37,38,38,39,39,40,40,41,41,42,42,46,46,47,47,48,48,49,49,50,50,51,51,52,52,53,53,54,54],"right_children":[2,4,6,8,10,12,14,16,18,20,22,24,26,28,30,-1,32,34,36,-1,38,40,42,44,46,-1,-1,48,50,52,54,56,-1,-1,-1,58,60,62,64,66,68,70,72,-1,-1,-1,74,76,78,80,82,84,86,88,90,-1,-1,-1,-1,-1,-1,-1,-1,-1,-1,-1,-1,-1,-1,-1,-1,-1,-1,-1,-1,-1,-1,-1,-1,-1,-1,-1,-1,-1,-1,-1,-1,-1,-1,-1,-1],"split_conditions":[2.0285796E2,1.8650675E-1,7.3709564E0,6.3192177E1,4.0902536E2,3.9261486E1,4.60778E-4,-5.716113E-1,7.629159E1,1.7883015E-1,1.1816885E3,2.008573E1,2.0302458E2,1.0596502E2,7.433001E1,5.6899544E-3,9.218418E3,3.1593233E-1,1.6056032E-1,-3.201893E-2,7.4004326E0,5.22924E-2,1.41770735E1,1.8492353E-1,3.6956332E2,-1.7523568E-2,2.2358367E-2,1.5390753E1,4.390033E2,2.0569405E1,1.2320958E0,8.132678E1,4.0354053E-3,7.1306296E-2,-1.16096E-2,1.3615471E0,1.525523E0,1.1292584E3,7.7256294E1,7.712529E3,-7.5941175E-2,1.9844738E-1,1.5286591E1,2.0799903E-2,-2.222795E-2,6.1057047E-3,4.0707245E0,5.1984344E-2,7.672781E-2,1.0658003E1,1.5349004E1,3.277692E1,3.641789E1,2.6433264E1,3.8371024E2,1.7456006E-3,-1.1532687E-1,-5.924071E-2,3.7057435E-3,-2.2892512E-2,3.7729174E-2,3.668772E-2,-2.9394707E-2,1.2573056E-1,3.4761978E-3,-7.617434E-3,2.9179335E-2,3.5837688E-3,-7.523656E-2,2.2943133E-2,-2.9069355E-2,8.286727E-2,1.5405575E-3,-1.3128625E-1,3.4553749E-3,-2.884295E-3,9.3837306E-2,-4.800251E-2,2.7951559E-2,3.3188894E-2,-1.0002739E-1,-1.3704629E-2,6.739556E-2,5.097461E-3,-3.4332264E-2,7.333081E-2,-6.367649E-3,-1.3424933E-1,1.1051458E-2,4.6330348E-2,-4.257076E-2],"split_indices":[60,58,30,59,64,12,62,24,8,37,66,59,60,68,61,0,69,57,58,0,32,47,16,57,65,0,0,55,64,17,57,69,0,0,0,39,21,69,59,69,41,58,55,0,0,0,67,47,47,55,55,68,17,63,65,0,0,0,0,0,0,0,0,0,0,0,0,0,0,0,0,0,0,0,0,0,0,0,0,0,0,0,0,0,0,0,0,0,0,0,0],"split_type":[0,0,0,0,0,0,0,0,0,0,0,0,0,0,0,0,0,0,0,0,0,0,0,0,0,0,0,0,0,0,0,0,0,0,0,0,0,0,0,0,0,0,0,0,0,0,0,0,0,0,0,0,0,0,0,0,0,0,0,0,0,0,0,0,0,0,0,0,0,0,0,0,0,0,0,0,0,0,0,0,0,0,0,0,0,0,0,0,0,0,0],"sum_hessian":[4.6087982E2,2.2896625E2,2.3191356E2,4.8924183E1,1.8004207E2,6.1157772E1,1.7075578E2,2.3778233E1,2.514595E1,1.4766536E2,3.2376705E1,5.8256012E1,2.901759E0,7.479754E1,9.595825E1,1.2087413E0,2.256949E1,1.1339531E1,1.380642E1,3.8116E0,1.4385376E2,1.6754887E1,1.562182E1,3.5980263E0,5.4657986E1,1.431457E0,1.4703019E0,3.5535652E1,3.9261883E1,2.023121E1,7.572704E1,2.1355072E1,1.2144192E0,9.128187E0,2.211343E0,7.2594447E0,6.546975E0,1.2663386E1,1.3119037E2,4.420551E0,1.2334335E1,3.6583173E0,1.1963503E1,1.6933156E0,1.9047105E0,1.2067088E0,5.345128E1,2.812074E1,7.4149127E0,2.7829771E1,1.1432111E1,3.91882E0,1.6312391E1,6.1552917E1,1.4174126E1,1.1751095E0,2.0179962E1,6.024481E0,1.234964E0,1.7332435E0,4.8137317E0,3.8413093E0,8.822077E0,1.2708765E2,4.1027226E0,1.6876134E0,2.7329376E0,1.2360408E0,1.1098294E1,1.4570664E0,2.2012508E0,1.0494116E1,1.4693872E0,5.2007034E1,1.4442447E0,1.4570189E0,2.6663723E1,4.337677E0,3.0772357E0,1.1942089E1,1.5887682E1,2.4236686E0,9.008442E0,1.2104579E0,2.7083619E0,1.2853499E1,3.458892E0,5.0172485E1,1.1380432E1,9.217841E0,4.9562836E0],"tree_param":{"num_deleted":"0","num_feature":"70","num_nodes":"91","size_leaf_vector":"1"}},{"base_weights":[4.70567E-3,-5.217359E-1,3.8814506E-1,-7.924129E-1,-1.2073898E-1,7.019314E-1,5.7900097E-2,-8.8900423E-1,8.789964E-2,2.0021114E-1,-7.06363E-1,8.344853E-1,-1.9258605E-1,2.0557468E-1,-4.6042547E-1,1.4998598E-1,-9.435166E-1,3.8744867E-1,-3.9558552E-2,-3.323393E-1,5.689035E-1,-8.414642E-1,1.8584209E-2,9.2688966E-1,1.0169331E-1,-5.016224E-1,2.8845075E-1,3.4797665E-1,-4.7524667E-1,1.924966E-1,-6.382888E-1,-1.457359E-2,3.2965474E-2,1.333705E-1,-9.980948E-1,-3.2530352E-3,5.246719E-2,2.842851E-1,-5.37543E-1,-2.2312604E-1,7.057286E-1,5.5603143E-3,-8.921684E-1,9.6893436E-1,-3.352267E-2,4.1048133E-1,-3.4367338E-1,-7.1025334E-2,3.2409284E-2,-4.8618685E-3,4.1736614E-2,-2.3763308E-1,4.9655297E-1,-6.3802546E-1,1.5157801E-1,-1.0537769E-2,3.5574444E-2,-7.5439054E-1,2.0659674E-2,3.0264353E-2,-1.3975253E-2,-5.4986253E-3,-1.2517573E-1,-2.1885952E-3,3.8710378E-2,1.8269278E-2,-8.023367E-2,-3.3028543E-2,4.809407E-3,-1.6199294E-2,9.2715815E-2,2.8053E-3,-1.1223139E-1,1.5172857E-2,1.24294296E-1,2.154091E-2,-2.8162526E-2,-4.239162E-3,5.916719E-2,-5.1717475E-2,6.157462E-3,2.0879336E-2,-1.6935406E-2,2.2748632E-2,-5.0404962E-2,-1.8495012E-2,7.592878E-2,-8.118485E-2,1.6030713E-3,-4.5567313E-3,2.457295E-2,-1.0234046E-1,4.8585953E-3],"categories":[],"categories_nodes":[],"categories_segments":[],"categories_sizes":[],"default_left":[0,0,0,0,0,0,0,0,0,0,0,0,0,0,0,0,0,0,0,0,0,0,0,0,0,0,0,0,0,0,0,0,0,0,0,0,0,0,0,0,0,0,0,0,0,0,0,0,0,0,0,0,0,0,0,0,0,0,0,0,0,0,0,0,0,0,0,0,0,0,0,0,0,0,0,0,0,0,0,0,0,0,0,0,0,0,0,0,0,0,0,0,0],"id":5,"left_children":[1,3,5,7,9,11,13,15,17,19,21,23,25,27,29,31,33,35,-1,37,39,41,-1,43,45,47,49,51,53,55,57,-1,-1,59,61,-1,-1,63,65,67,69,-1,71,73,75,77,79,-1,81,-1,-1,83,85,87,89,-1,-1,91,-1,-1,-1,-1,-1,-1,-1,-1,-1,-1,-1,-1,-1,-1,-1,-1,-1,-1,-1,-1,-1,-1,-1,-1,-1,-1,-1,-1,-1,-1,-1,-1,-1,-1,-1],"loss_changes":[9.820242E1,2.0823627E1,2.8547733E1,1.1353249E1,2.0980555E1,1.935833E1,1.3164483E1,8.3101425E0,5.1039877E0,1.7857283E1,6.4733276E0,7.2058563E0,6.7244062E0,1.50633955E1,6.3317747E0,1.122985E0,8.218437E0,6.263559E-1,0E0,7.450464E0,7.86042E0,2.236168E0,0E0,4.9772797E0,6.3934984E0,1.4506884E0,6.312921E-1,1.1862407E1,4.3883114E0,9.674615E-1,5.1335726E0,0E0,0E0,9.849963E-1,3.6797333E0,0E0,0E0,3.1987774E-1,4.7613964E0,4.2429817E-1,4.2006493E0,0E0,1.6970711E0,4.063797E0,1.4530997E0,1.1891193E0,1.052427E0,0E0,8.034639E-1,0E0,0E0,3.8141828E0,1.0091688E1,7.812128E-1,2.9870287E-1,0E0,0E0,3.0532055E0,0E0,0E0,0E0,0E0,0E0,0E0,0E0,0E0,0E0,0E0,0E0,0E0,0E0,0E0,0E0,0E0,0E0,0E0,0E0,0E0,0E0,0E0,0E0,0E0,0E0,0E0,0E0,0E0,0E0,0E0,0E0,0E0,0E0,0E0,0E0],"parents":[2147483647,0,0,1,1,2,2,3,3,4,4,5,5,6,6,7,7,8,8,9,9,10,10,11,11,12,12,13,13,14,14,15,15,16,16,17,17,19,19,20,20,21,21,23,23,24,24,25,25,26,26,27,27,28,28,29,29,30,30,33,33,34,34,37,37,38,38,39,39,40,40,42,42,43,43,44,44,45,45,46,46,48,48,51,51,52,52,53,53,54,54,57,57],"right_children":[2,4,6,8,10,12,14,16,18,20,22,24,26,28,30,32,34,36,-1,38,40,42,-1,44,46,48,50,52,54,56,58,-1,-1,60,62,-1,-1,64,66,68,70,-1,72,74,76,78,80,-1,82,-1,-1,84,86,88,90,-1,-1,92,-1,-1,-1,-1,-1,-1,-1,-1,-1,-1,-1,-1,-1,-1,-1,-1,-1,-1,-1,-1,-1,-1,-1,-1,-1,-1,-1,-1,-1,-1,-1,-1,-1,-1,-1],"split_conditions":[7.438632E0,2.2496106E-1,1.8259827E1,4.3998605E2,1.4933202E0,4.151441E2,7.173658E-2,2.008573E1,1.25726715E2,1.258477E3,7.820144E1,1.3159613E3,1.1816885E3,7.944542E0,3.858854E2,6.89531E0,3.4241533E-1,2.6573652E1,-3.9558552E-2,3.578334E1,3.7891943E2,6.327745E0,1.8584209E-2,3.3701956E-1,1.5905536E0,2.9913895E1,4.1923624E2,1.2840176E1,2.9400585E1,2.411501E1,9.046348E3,-1.457359E-2,3.2965474E-2,1.752479E-3,1.580991E2,-3.2530352E-3,5.246719E-2,1.174707E1,4.3685055E-1,5.0997935E3,1.5611278E2,5.5603143E-3,5.496533E2,7.823223E0,4.8866313E-2,1.3381759E3,1.3438398E0,-7.1025334E-2,1.0087776E0,-4.8618685E-3,4.1736614E-2,8.3720315E-1,2.1115044E1,5.5962364E1,5.6664383E1,-1.0537769E-2,3.5574444E-2,1.4429677E0,2.0659674E-2,3.0264353E-2,-1.3975253E-2,-5.4986253E-3,-1.2517573E-1,-2.1885952E-3,3.8710378E-2,1.8269278E-2,-8.023367E-2,-3.3028543E-2,4.809407E-3,-1.6199294E-2,9.2715815E-2,2.8053E-3,-1.1223139E-1,1.5172857E-2,1.24294296E-1,2.154091E-2,-2.8162526E-2,-4.239162E-3,5.916719E-2,-5.1717475E-2,6.157462E-3,2.0879336E-2,-1.6935406E-2,2.2748632E-2,-5.0404962E-2,-1.8495012E-2,7.592878E-2,-8.118485E-2,1.6030713E-3,-4.5567313E-3,2.457295E-2,-1.0234046E-1,4.8585953E-3],"split_indices":[30,57,63,64,21,64,44,59,61,66,59,66,66,30,64,55,56,63,0,59,65,68,0,58,56,3,64,16,4,1,69,0,0,62,60,0,0,2,51,69,60,0,69,33,62,66,67,0,56,0,0,56,63,11,9,0,0,21,0,0,0,0,0,0,0,0,0,0,0,0,0,0,0,0,0,0,0,0,0,0,0,0,0,0,0,0,0,0,0,0,0,0,0],"split_type":[0,0,0,0,0,0,0,0,0,0,0,0,0,0,0,0,0,0,0,0,0,0,0,0,0,0,0,0,0,0,0,0,0,0,0,0,0,0,0,0,0,0,0,0,0,0,0,0,0,0,0,0,0,0,0,0,0,0,0,0,0,0,0,0,0,0,0,0,0,0,0,0,0,0,0,0,0,0,0,0,0,0,0,0,0,0,0,0,0,0,0,0,0],"sum_hessian":[4.5644315E2,1.9007303E2,2.6637012E2,1.0473456E2,8.533847E1,1.2793182E2,1.3843831E2,9.424547E1,1.0489091E1,6.1503468E1,2.3835007E1,1.12297676E2,1.5634146E1,1.1478582E2,2.3652481E1,3.3885942E0,9.085687E1,6.737311E0,3.75178E0,2.5765703E1,3.5737766E1,2.0900616E1,2.9343915E0,9.619453E1,1.6103146E1,9.1280365E0,6.506109E0,1.0099484E2,1.3790978E1,4.7995687E0,1.8852913E1,1.1910444E0,2.1975498E0,3.338081E0,8.751879E1,1.4545708E0,5.28274E0,4.990091E0,2.0775612E1,3.8706899E0,3.1867075E1,1.1990067E0,1.9701609E1,9.2032455E1,4.1620784E0,1.0203589E1,5.8995557E0,6.4184694E0,2.7095664E0,1.7221531E0,4.7839565E0,1.86187E1,8.2376144E1,1.0735152E1,3.0558267E0,1.9285605E0,2.871008E0,1.7398146E1,1.454768E0,2.165596E0,1.1724848E0,5.318701E0,8.220009E1,1.4437728E0,3.546318E0,2.9304492E0,1.7845161E1,2.6585414E0,1.2121484E0,1.2236842E0,3.064339E1,1.1941315E0,1.8507477E1,9.954285E0,8.207817E1,2.8057456E0,1.3563327E0,2.9360754E0,7.2675138E0,3.7121522E0,2.1874037E0,1.4704103E0,1.2391561E0,5.394813E0,1.3223887E1,1.3915317E1,6.846082E1,9.588892E0,1.1462598E0,1.6103852E0,1.4454414E0,1.4507635E1,2.8905098E0],"tree_param":{"num_deleted":"0","num_feature":"70","num_nodes":"93","size_leaf_vector":"1"}},{"base_weights":[2.5628589E-3,-5.962421E-1,3.107336E-1,9.8549396E-2,-8.472864E-1,5.6786746E-1,-8.595153E-2,3.7165684E-1,-4.7527444E-1,-3.1103045E-2,-9.974537E-1,-2.228101E-1,6.532057E-1,-2.958726E-1,6.179619E-1,-1.7972226E-1,5.3245556E-1,-7.2262205E-2,1.5290635E-2,4.364959E-1,-6.4731926E-2,-1.036308E0,1.0043735E-2,2.7878124E-1,-5.1300764E-1,-2.139848E-2,7.6791114E-1,-4.2440093E-1,2.5513834E-1,7.0781267E-1,-1.780755E-2,-4.309741E-2,1.92228E-2,-2.1008149E-2,6.2789464E-1,-2.1960875E-2,5.97146E-1,4.4847958E-2,-1.0786545E0,4.3710727E-2,-8.578E-3,-5.6740546E-1,4.619458E-3,-3.8014647E-1,4.7803912E-1,8.903382E-1,1.6759087E-1,3.788289E-1,-5.470278E-1,-1.7064232E-1,4.139527E-1,7.738338E-1,-5.858324E-3,8.5166335E-2,-1.692462E-2,7.664592E-2,-8.268858E-4,1.9494306E-2,-1.4147378E-2,-1.3427511E-1,6.371275E-3,-7.1518295E-2,1.349942E-4,2.8811364E-2,-6.851091E-2,6.566853E-2,-5.6733214E-3,1.1207656E-1,-1.8678252E-2,3.8610194E-2,-2.5003424E-2,4.9547184E-2,-1.0840559E-3,-7.926453E-2,1.3845117E-2,1.2797875E-2,-3.4592424E-2,-1.4661123E-2,6.4967625E-2,9.878234E-2,-3.3842663E-3],"categories":[],"categories_nodes":[],"categories_segments":[],"categories_sizes":[],"default_left":[0,0,0,0,0,0,0,0,0,0,0,0,0,0,0,0,0,0,0,0,0,0,0,0,0,0,0,0,0,0,0,0,0,0,0,0,0,0,0,0,0,0,0,0,0,0,0,0,0,0,0,0,0,0,0,0,0,0,0,0,0,0,0,0,0,0,0,0,0,0,0,0,0,0,0,0,0,0,0,0,0],"id":6,"left_children":[1,3,5,7,9,11,13,15,17,19,21,23,25,27,29,31,33,-1,-1,35,-1,37,-1,39,41,43,45,47,49,51,-1,-1,-1,-1,53,-1,55,57,59,-1,-1,61,-1,63,65,67,69,71,73,75,77,79,-1,-1,-1,-1,-1,-1,-1,-1,-1,-1,-1,-1,-1,-1,-1,-1,-1,-1,-1,-1,-1,-1,-1,-1,-1,-1,-1,-1,-1],"loss_changes":[8.83397E1,2.9627666E1,3.296221E1,1.1522141E1,1.4372742E1,1.5251797E1,2.303024E1,5.582672E0,3.0508823E0,1.1683799E1,5.576088E0,6.5197263E0,1.4068947E1,9.8323345E0,4.0816593E0,2.1910522E0,4.3499126E0,0E0,0E0,4.242221E0,0E0,5.274582E0,0E0,1.0113001E0,1.0572333E0,9.991739E0,9.01226E0,1.2919865E1,3.175371E0,2.3238316E0,0E0,0E0,0E0,0E0,3.924839E0,0E0,6.758728E-1,6.3459057E-1,5.2798843E0,0E0,0E0,3.8522673E-1,0E0,5.8374095E0,1.2458487E0,7.8248444E0,3.5793762E0,3.4735537E-1,8.10232E0,1.084856E0,2.8484616E0,1.6640701E0,0E0,0E0,0E0,0E0,0E0,0E0,0E0,0E0,0E0,0E0,0E0,0E0,0E0,0E0,0E0,0E0,0E0,0E0,0E0,0E0,0E0,0E0,0E0,0E0,0E0,0E0,0E0,0E0,0E0],"parents":[2147483647,0,0,1,1,2,2,3,3,4,4,5,5,6,6,7,7,8,8,9,9,10,10,11,11,12,12,13,13,14,14,15,15,16,16,19,19,21,21,23,23,24,24,25,25,26,26,27,27,28,28,29,29,34,34,36,36,37,37,38,38,41,41,43,43,44,44,45,45,46,46,47,47,48,48,49,49,50,50,51,51],"right_children":[2,4,6,8,10,12,14,16,18,20,22,24,26,28,30,32,34,-1,-1,36,-1,38,-1,40,42,44,46,48,50,52,-1,-1,-1,-1,54,-1,56,58,60,-1,-1,62,-1,64,66,68,70,72,74,76,78,80,-1,-1,-1,-1,-1,-1,-1,-1,-1,-1,-1,-1,-1,-1,-1,-1,-1,-1,-1,-1,-1,-1,-1,-1,-1,-1,-1,-1,-1],"split_conditions":[7.378231E0,3.8697507E2,4.0902536E2,2.9596665E3,2.025234E2,2.533919E-1,2.0495566E2,1.2840176E1,7.3730907E0,1.576152E2,2.7489266E-1,5.496533E2,2.0127611E-1,8.546249E3,5.3714204E3,1.3923285E0,1.4365497E0,-7.2262205E-2,1.5290635E-2,4.2125875E-1,-6.4731926E-2,1.0075698E-1,1.0043735E-2,2.831366E1,1.6845143E0,7.8757324E0,1.3215176E3,1.0814519E3,2.461142E-1,1.248575E3,-1.780755E-2,-4.309741E-2,1.92228E-2,-2.1008149E-2,3.1188944E-2,-2.1960875E-2,-8.636302E-1,-3.62E-6,4.439164E2,4.3710727E-2,-8.578E-3,3.8402396E2,4.619458E-3,-3.2707232E-1,8.094183E0,8.461644E0,2.7690617E1,-3.3529297E-1,1.4662622E0,6.386821E-2,1.0473606E-1,1.4891219E0,-5.858324E-3,8.5166335E-2,-1.692462E-2,7.664592E-2,-8.268858E-4,1.9494306E-2,-1.4147378E-2,-1.3427511E-1,6.371275E-3,-7.1518295E-2,1.349942E-4,2.8811364E-2,-6.851091E-2,6.566853E-2,-5.6733214E-3,1.1207656E-1,-1.8678252E-2,3.8610194E-2,-2.5003424E-2,4.9547184E-2,-1.0840559E-3,-7.926453E-2,1.3845117E-2,1.2797875E-2,-3.4592424E-2,-1.4661123E-2,6.4967625E-2,9.878234E-2,-3.3842663E-3],"split_indices":[30,64,64,69,60,36,60,16,32,61,24,69,58,69,69,67,20,0,0,36,0,58,0,15,57,30,66,66,58,66,0,0,0,0,62,0,29,62,64,0,0,65,0,24,31,35,16,26,18,45,41,19,0,0,0,0,0,0,0,0,0,0,0,0,0,0,0,0,0,0,0,0,0,0,0,0,0,0,0,0,0],"split_type":[0,0,0,0,0,0,0,0,0,0,0,0,0,0,0,0,0,0,0,0,0,0,0,0,0,0,0,0,0,0,0,0,0,0,0,0,0,0,0,0,0,0,0,0,0,0,0,0,0,0,0,0,0,0,0,0,0,0,0,0,0,0,0,0,0,0,0,0,0,0,0,0,0,0,0,0,0,0,0,0,0],"sum_hessian":[4.4865726E2,1.4767978E2,3.0097748E2,4.1615677E1,1.060641E2,1.7868181E2,1.2229569E2,3.1776571E1,9.839105E0,1.92957E1,8.67684E1,1.5052589E1,1.6362921E2,1.00900314E2,2.1395372E1,6.776087E0,2.5000484E1,8.1381645E0,1.7009398E0,1.1154589E1,8.141111E0,8.435888E1,2.4095218E0,5.733182E0,9.319407E0,2.5552416E1,1.380768E2,8.461075E1,1.6289564E1,2.0175798E1,1.2195734E0,3.8795426E0,2.896544E0,1.4839929E0,2.351649E1,1.8671036E0,9.287485E0,3.1462119E0,8.121267E1,4.1269126E0,1.6062695E0,8.0890255E0,1.2303821E0,1.6955778E1,8.596639E0,1.08668724E2,2.9408072E1,7.0556517E0,7.75551E1,4.1218243E0,1.2167741E1,1.8242962E1,1.9328381E0,2.2298721E1,1.2177707E0,7.8837366E0,1.4037489E0,1.8419158E0,1.304296E0,7.858359E1,2.6290793E0,7.012142E0,1.0768832E0,3.0764163E0,1.3879362E1,7.0429535E0,1.5536852E0,1.05859245E2,2.8094826E0,2.2389662E1,7.0184097E0,5.5961494E0,1.4595022E0,6.624548E1,1.1309618E1,1.6447045E0,2.4771197E0,2.4559915E0,9.71175E0,1.6812843E1,1.4301174E0],"tree_param":{"num_deleted":"0","num_feature":"70","num_nodes":"81","size_leaf_vector":"1"}},{"base_weights":[1.4945079E-3,-2.843409E-1,5.443026E-1,-7.10496E-1,-5.965197E-2,8.291464E-1,7.017442E-2,1.3879877E-1,-8.069338E-1,-1.9550556E-1,5.323321E-1,8.705477E-1,-1.02859005E-1,-4.153374E-1,3.3474663E-1,-2.3622144E-2,3.1224114E-1,-9.1919523E-1,-5.268847E-2,2.670881E-1,-6.0328454E-1,-3.3579778E-2,6.8694925E-1,9.128901E-1,-7.28538E-2,-2.8424712E-2,1.5084934E-2,-5.989662E-1,2.8002143E-2,4.7865358E-1,-2.4515188E-1,-1.3546855E-2,5.0413758E-2,8.677196E-3,-9.460524E-1,1.8765053E-1,-2.608616E-1,-2.1137932E-1,5.004105E-1,8.164456E-2,-8.446173E-1,-1.6383559E-2,7.8132355E-1,9.548414E-1,1.1298029E-2,1.3468359E-2,-2.3236483E-2,-6.899223E-1,8.067241E-3,5.909327E-1,-3.0226575E-2,1.8042956E-2,-3.8556156E-1,5.441008E-3,-1.16561644E-1,-1.7095074E-2,3.7679568E-2,6.3532903E-3,-4.100201E-2,-4.5794837E-2,1.6872881E-2,7.266251E-2,-2.3141364E-2,3.8165037E-2,-4.007261E-2,-1.2067686E-1,2.585463E-2,-1.365449E-2,1.0224478E-1,1.2570533E-1,2.1941096E-2,-1.814009E-2,2.1317648E-2,4.2536287E-3,-8.8984646E-2,4.6882806E-3,8.7336E-2,1.3922377E-3,-5.029068E-2],"categories":[],"categories_nodes":[],"categories_segments":[],"categories_sizes":[],"default_left":[0,0,0,0,0,0,0,0,0,0,0,0,0,0,0,0,0,0,0,0,0,0,0,0,0,0,0,0,0,0,0,0,0,0,0,0,0,0,0,0,0,0,0,0,0,0,0,0,0,0,0,0,0,0,0,0,0,0,0,0,0,0,0,0,0,0,0,0,0,0,0,0,0,0,0,0,0,0,0],"id":7,"left_children":[1,3,5,7,9,11,13,15,17,19,21,23,25,27,29,-1,31,33,35,37,39,-1,41,43,45,-1,-1,47,-1,49,51,-1,-1,-1,53,55,57,59,61,63,65,-1,67,69,71,-1,-1,73,-1,75,-1,-1,77,-1,-1,-1,-1,-1,-1,-1,-1,-1,-1,-1,-1,-1,-1,-1,-1,-1,-1,-1,-1,-1,-1,-1,-1,-1,-1],"loss_changes":[7.3248245E1,2.8980858E1,2.1118374E1,1.0313164E1,1.9165644E1,5.214714E0,1.2040452E1,2.2927804E0,7.4747887E0,3.80713E1,8.520165E0,4.8984375E0,9.882835E-1,6.1501074E0,6.6394672E0,0E0,1.6893685E0,3.2469406E0,2.1582115E0,1.2633243E1,1.8400444E1,0E0,4.8680573E0,3.414978E0,7.303258E-1,0E0,0E0,2.5576353E0,0E0,6.4918375E0,2.0660138E0,0E0,0E0,0E0,2.7235565E0,1.585798E0,8.1731915E-1,3.3804832E0,6.92301E0,5.626041E0,1.6736729E1,0E0,3.9835663E0,3.5810242E0,9.266931E-1,0E0,0E0,1.4564075E0,0E0,3.3115902E0,0E0,0E0,3.4069204E-1,0E0,0E0,0E0,0E0,0E0,0E0,0E0,0E0,0E0,0E0,0E0,0E0,0E0,0E0,0E0,0E0,0E0,0E0,0E0,0E0,0E0,0E0,0E0,0E0,0E0,0E0],"parents":[2147483647,0,0,1,1,2,2,3,3,4,4,5,5,6,6,7,7,8,8,9,9,10,10,11,11,12,12,13,13,14,14,16,16,17,17,18,18,19,19,20,20,22,22,23,23,24,24,27,27,29,29,30,30,34,34,35,35,36,36,37,37,38,38,39,39,40,40,42,42,43,43,44,44,47,47,49,49,52,52],"right_children":[2,4,6,8,10,12,14,16,18,20,22,24,26,28,30,-1,32,34,36,38,40,-1,42,44,46,-1,-1,48,-1,50,52,-1,-1,-1,54,56,58,60,62,64,66,-1,68,70,72,-1,-1,74,-1,76,-1,-1,78,-1,-1,-1,-1,-1,-1,-1,-1,-1,-1,-1,-1,-1,-1,-1,-1,-1,-1,-1,-1,-1,-1,-1,-1,-1,-1],"split_conditions":[1.2755814E0,7.3709564E0,1.9924136E2,4.4225615E-1,4.390033E2,1.5133592E1,1.4704516E0,1.1554581E2,-7.522043E-1,4.0195645E2,2.3923416E1,8.740719E-2,1.4305263E0,2.4544796E1,3.8160074E-1,-2.3622144E-2,8.9759766E1,3.6807986E2,1.2462615E3,1.434614E0,1.3821094E0,-3.3579778E-2,-9.53E-6,1.7594617E2,9.38236E-3,-2.8424712E-2,1.5084934E-2,1.5029087E1,2.8002143E-2,7.9241867E0,5.3447987E1,-1.3546855E-2,5.0413758E-2,8.677196E-3,-1.457546E-2,1.5734148E2,1.3094727E1,4.50947E-1,9.046348E3,2.9398138E1,1.1515799E4,-1.6383559E-2,-8.9855534E-1,1.328691E3,1.9561073E2,1.3468359E-2,-2.3236483E-2,9.881836E0,8.067241E-3,1.3254342E0,-3.0226575E-2,1.8042956E-2,-3.490411E-1,5.441008E-3,-1.16561644E-1,-1.7095074E-2,3.7679568E-2,6.3532903E-3,-4.100201E-2,-4.5794837E-2,1.6872881E-2,7.266251E-2,-2.3141364E-2,3.8165037E-2,-4.007261E-2,-1.2067686E-1,2.585463E-2,-1.365449E-2,1.0224478E-1,1.2570533E-1,2.1941096E-2,-1.814009E-2,2.1317648E-2,4.2536287E-3,-8.8984646E-2,4.6882806E-3,8.7336E-2,1.3922377E-3,-5.029068E-2],"split_indices":[56,30,60,56,64,55,56,68,29,64,63,46,22,63,39,0,8,65,66,19,19,0,62,61,62,0,0,55,0,30,59,0,0,0,57,68,4,57,69,5,69,0,29,66,60,0,0,15,0,19,0,0,26,0,0,0,0,0,0,0,0,0,0,0,0,0,0,0,0,0,0,0,0,0,0,0,0,0,0],"split_type":[0,0,0,0,0,0,0,0,0,0,0,0,0,0,0,0,0,0,0,0,0,0,0,0,0,0,0,0,0,0,0,0,0,0,0,0,0,0,0,0,0,0,0,0,0,0,0,0,0,0,0,0,0,0,0,0,0,0,0,0,0,0,0,0,0,0,0,0,0,0,0,0,0,0,0,0,0,0,0],"sum_hessian":[4.4213834E2,2.943042E2,1.4783412E2,9.0405365E1,2.0389885E2,8.5335236E1,6.2498894E1,8.5469055E0,8.185846E1,1.740114E2,2.9887447E1,8.265277E1,2.6824636E0,1.9029856E1,4.346904E1,2.2221167E0,6.324789E0,6.839776E1,1.3460705E1,8.395089E1,9.006051E1,2.837144E0,2.7050304E1,7.9566734E1,3.0860372E0,1.3473846E0,1.3350791E0,1.5727519E1,3.3023367E0,3.6924706E1,6.544332E0,1.1388696E0,5.1859193E0,1.1343478E0,6.726341E1,6.934029E0,6.526676E0,2.798125E1,5.596964E1,2.6050812E1,6.40097E1,2.0924075E0,2.4957897E1,7.518255E1,4.384182E0,1.6377708E0,1.4482664E0,1.3368076E1,2.359443E0,3.4490334E1,2.4343734E0,1.4361544E0,5.1081777E0,1.3777034E0,6.5885704E1,1.3898176E0,5.5442114E0,2.396346E0,4.13033E0,1.800826E1,9.972989E0,5.024923E1,5.720409E0,1.8849323E1,7.20149E0,5.6237522E1,7.772175E0,1.1584516E0,2.3799444E1,6.2342476E1,1.28400755E1,2.910543E0,1.473639E0,1.2002227E0,1.2167853E1,1.0685801E1,2.3804531E1,1.1612657E0,3.946912E0],"tree_param":{"num_deleted":"0","num_feature":"70","num_nodes":"79","size_leaf_vector":"1"}},{"base_weights":[-3.835453E-2,-4.4794446E-1,2.518273E-1,-1.429172E-1,-7.7475536E-1,5.750987E-1,-6.1781213E-2,-4.6399653E-1,2.8524446E-1,-8.462272E-1,2.0620998E-2,-6.7447457E-3,6.3948023E-1,-2.6644146E-1,3.8836294E-1,2.3955119E-1,-6.6771173E-1,4.344941E-1,-2.8007433E-1,8.385426E-2,-9.2813045E-1,2.6806098E-1,-4.3096345E-2,7.176754E-1,4.768343E-2,2.0146011E-1,-5.6959414E-1,5.415285E-1,-1.9245355E-1,-2.2214264E-2,3.8184687E-1,-7.872387E-1,1.8770804E-1,-9.956607E-2,6.0395175E-1,-3.3980307E-1,6.6177575E-3,-2.0435866E-2,2.950708E-2,-1.0308335E0,2.2887373E-2,-2.067953E-2,4.0269694E-1,7.6900035E-1,-6.969063E-2,3.1349513E-1,-3.0825028E-1,-3.691489E-1,5.020388E-1,-7.734064E-1,1.5760393E-1,7.0107806E-1,-1.3113417E-1,-4.5277398E-2,1.8381251E-2,5.741899E-2,-1.3900435E-2,-1.0033175E-1,8.10692E-3,-7.4812826E-3,3.1611558E-2,3.331961E-2,-4.2344674E-2,-1.9870693E-2,8.764354E-2,1.1834519E-3,-4.4284E-2,-6.5366635E-3,-1.2698127E-1,3.236872E-2,-3.0838994E-2,-9.699353E-3,6.047774E-2,1.0451714E-1,1.7005501E-2,2.7572233E-2,-3.573715E-2,-5.4279333E-3,4.372543E-2,-4.5430306E-2,4.3516387E-3,2.5217606E-2,-7.080176E-2,6.859483E-2,-1.6531534E-2,8.034562E-3,-1.0354788E-1,4.1240506E-2,-3.015049E-2,9.236292E-2,-8.470301E-3,-2.9186687E-2,1.4360624E-2],"categories":[],"categories_nodes":[],"categories_segments":[],"categories_sizes":[],"default_left":[0,0,0,0,0,0,0,0,0,0,0,0,0,0,0,0,0,0,0,0,0,0,0,0,0,0,0,0,0,0,0,0,0,0,0,0,0,0,0,0,0,0,0,0,0,0,0,0,0,0,0,0,0,0,0,0,0,0,0,0,0,0,0,0,0,0,0,0,0,0,0,0,0,0,0,0,0,0,0,0,0,0,0,0,0,0,0,0,0,0,0,0,0],"id":8,"left_children":[1,3,5,7,9,11,13,15,17,19,-1,21,23,25,27,29,31,33,35,37,39,41,-1,43,45,47,49,51,53,-1,55,57,59,61,63,65,-1,-1,-1,67,69,-1,71,73,75,77,79,81,83,85,87,89,91,-1,-1,-1,-1,-1,-1,-1,-1,-1,-1,-1,-1,-1,-1,-1,-1,-1,-1,-1,-1,-1,-1,-1,-1,-1,-1,-1,-1,-1,-1,-1,-1,-1,-1,-1,-1,-1,-1,-1,-1],"loss_changes":[5.3441303E1,1.6875599E1,2.7342829E1,1.7736012E1,8.025024E0,4.997162E0,1.5166136E1,1.2601644E1,6.751783E0,7.47818E0,0E0,4.151838E0,4.980114E0,1.7392933E1,6.2151327E0,2.6932738E0,8.265556E0,5.6145487E0,7.078918E-1,1.4708E0,7.911972E0,2.4817142E0,0E0,4.9981384E0,4.2805233E0,1.21306925E1,1.2346174E1,6.2420483E0,2.271219E0,0E0,2.0405295E0,3.1358223E0,6.130145E-1,3.8986742E0,5.8659687E0,2.6091838E-1,0E0,0E0,0E0,1.0086288E0,2.5747116E0,0E0,1.7425811E0,4.461197E0,2.3998349E0,6.956489E-1,6.991886E-1,5.3725424E0,3.053979E0,5.226223E0,3.425024E0,2.8792267E0,1.036058E0,0E0,0E0,0E0,0E0,0E0,0E0,0E0,0E0,0E0,0E0,0E0,0E0,0E0,0E0,0E0,0E0,0E0,0E0,0E0,0E0,0E0,0E0,0E0,0E0,0E0,0E0,0E0,0E0,0E0,0E0,0E0,0E0,0E0,0E0,0E0,0E0,0E0,0E0,0E0,0E0],"parents":[2147483647,0,0,1,1,2,2,3,3,4,4,5,5,6,6,7,7,8,8,9,9,11,11,12,12,13,13,14,14,15,15,16,16,17,17,18,18,19,19,20,20,21,21,23,23,24,24,25,25,26,26,27,27,28,28,30,30,31,31,32,32,33,33,34,34,35,35,39,39,40,40,42,42,43,43,44,44,45,45,46,46,47,47,48,48,49,49,50,50,51,51,52,52],"right_children":[2,4,6,8,10,12,14,16,18,20,-1,22,24,26,28,30,32,34,36,38,40,42,-1,44,46,48,50,52,54,-1,56,58,60,62,64,66,-1,-1,-1,68,70,-1,72,74,76,78,80,82,84,86,88,90,92,-1,-1,-1,-1,-1,-1,-1,-1,-1,-1,-1,-1,-1,-1,-1,-1,-1,-1,-1,-1,-1,-1,-1,-1,-1,-1,-1,-1,-1,-1,-1,-1,-1,-1,-1,-1,-1,-1,-1,-1],"split_conditions":[7.438632E0,4.0582364E2,1.7693966E1,6.553094E1,4.5834363E2,9.2632055E-1,6.816089E1,3.6468152E2,1.297271E1,-1.1895118E0,2.0620998E-2,3.839656E2,1.3159613E3,7.5911484E0,2.4293338E2,6.89531E0,7.376961E0,1.2828768E1,2.0302002E2,2.5386623E-1,3.225578E2,4.449797E-1,-4.3096345E-2,4.219952E2,1.6936446E2,1.3575025E1,2.785865E2,7.532484E1,7.552928E1,-2.2214264E-2,4.936011E3,1.4704516E0,4.010335E2,4.2043412E-1,4.5480078E-1,9.5013654E2,6.6177575E-3,-2.0435866E-2,2.950708E-2,1.0075698E-1,3.4090186E2,-2.067953E-2,4.500077E-1,-5.898633E-1,9.539101E0,3.890986E2,8.209452E0,1.0814519E3,6.5E1,4.912366E-2,1.4735352E0,3.8603378E2,2.7977523E-1,-4.5277398E-2,1.8381251E-2,5.741899E-2,-1.3900435E-2,-1.0033175E-1,8.10692E-3,-7.4812826E-3,3.1611558E-2,3.331961E-2,-4.2344674E-2,-1.9870693E-2,8.764354E-2,1.1834519E-3,-4.4284E-2,-6.5366635E-3,-1.2698127E-1,3.236872E-2,-3.0838994E-2,-9.699353E-3,6.047774E-2,1.0451714E-1,1.7005501E-2,2.7572233E-2,-3.573715E-2,-5.4279333E-3,4.372543E-2,-4.5430306E-2,4.3516387E-3,2.5217606E-2,-7.080176E-2,6.859483E-2,-1.6531534E-2,8.034562E-3,-1.0354788E-1,4.1240506E-2,-3.015049E-2,9.236292E-2,-8.470301E-3,-2.9186687E-2,1.4360624E-2],"split_indices":[30,64,63,59,64,56,59,64,12,28,0,65,66,31,68,55,30,15,60,57,68,50,0,64,60,55,68,59,59,0,69,56,54,56,56,69,0,0,0,58,68,0,36,28,12,64,34,66,59,47,23,65,58,0,0,0,0,0,0,0,0,0,0,0,0,0,0,0,0,0,0,0,0,0,0,0,0,0,0,0,0,0,0,0,0,0,0,0,0,0,0,0,0],"split_type":[0,0,0,0,0,0,0,0,0,0,0,0,0,0,0,0,0,0,0,0,0,0,0,0,0,0,0,0,0,0,0,0,0,0,0,0,0,0,0,0,0,0,0,0,0,0,0,0,0,0,0,0,0,0,0,0,0,0,0,0,0,0,0,0,0,0,0,0,0,0,0,0,0,0,0,0,0,0,0,0,0,0,0,0,0,0,0,0,0,0,0,0,0],"sum_hessian":[4.20396E2,1.7094838E2,2.4944763E2,9.957252E1,7.137586E1,1.1667278E2,1.3277484E2,5.618434E1,4.3388176E1,6.784386E1,3.5320008E0,1.2961633E1,1.0371115E2,9.5484024E1,3.7290817E1,1.20230465E1,4.4161297E1,3.7072056E1,6.31612E0,5.461906E0,6.2381954E1,9.29935E0,3.662283E0,8.878875E1,1.4922401E1,3.9519432E1,5.5964592E1,3.031197E1,6.978848E0,1.8845577E0,1.0138489E1,3.9796185E1,4.36511E0,1.0419802E1,2.6652252E1,5.1869545E0,1.1291659E0,1.8287861E0,3.63312E0,5.5165577E1,7.216378E0,1.1940758E0,8.105274E0,8.368366E1,5.1050887E0,9.566559E0,5.355842E0,1.2454428E1,2.7065002E1,4.2968613E1,1.299598E1,2.3988472E1,6.323498E0,3.6511393E0,3.3277085E0,8.9742365E0,1.1642525E0,3.7954845E1,1.84134E0,1.6305697E0,2.7345402E0,3.6065242E0,6.8132777E0,3.1044848E0,2.3547768E1,1.1669147E0,4.0200396E0,2.7255874E0,5.2439987E1,4.1231823E0,3.093196E0,1.9284592E0,6.176815E0,6.696949E1,1.6714174E1,2.1604798E0,2.9446087E0,1.3953226E0,8.171237E0,3.215822E0,2.1400201E0,3.6386921E0,8.815736E0,2.5851784E1,1.2132206E0,4.4990363E0,3.8469574E1,1.0574977E1,2.4210038E0,2.2064909E1,1.9235629E0,4.6838055E0,1.6396925E0],"tree_param":{"num_deleted":"0","num_feature":"70","num_nodes":"93","size_leaf_vector":"1"}},{"base_weights":[1.0138465E-2,-5.680392E-1,2.0488991E-1,4.015954E-2,-7.852638E-1,4.1242105E-1,-2.1627638E-1,2.979104E-1,-2.8769872E-1,-8.9167774E-1,-9.085541E-2,-1.1820572E-1,5.457888E-1,-5.453932E-1,3.4991384E-1,-1.6203592E-2,3.843926E-1,2.3462093E-2,-4.674432E-1,1.6639126E-2,-9.427533E-1,1.4941563E-1,-2.7747104E-1,3.787271E-1,-2.994445E-1,6.269952E-1,-2.6379162E-1,-7.1415603E-1,3.4241468E-1,6.1726326E-1,-3.430546E-1,-5.860268E-2,4.7196648E-1,6.519038E-3,-6.36368E-2,2.493027E-2,-1.0023985E0,-2.2489958E-2,3.2814696E-1,8.762701E-3,-4.2354695E-2,-3.2150191E-3,5.095296E-2,1.9726352E-1,-4.4105268E-1,6.6276944E-1,-2.8991869E-2,-4.9525762E-1,2.6291735E-2,-1.6339168E-1,-9.0514183E-1,-3.1862452E-3,4.6231292E-2,-2.5562348E-2,7.374842E-1,1.4743187E-2,-4.7045225E-1,1.5586688E-2,-2.3254288E-2,6.510285E-2,-3.7555203E-3,-1.9725109E-2,2.3533892E-2,3.7464441E-3,-1.2446419E-1,-3.32463E-3,4.7066025E-2,-1.377933E-2,3.5845168E-2,-6.6796E-2,4.888345E-3,8.4144525E-2,-1.786921E-2,-6.389548E-2,1.7077877E-3,-4.918744E-2,3.6136325E-2,-1.19173735E-1,-1.7604656E-3,-1.6678894E-2,9.835442E-2,4.0581855E-3,-6.252516E-2],"categories":[],"categories_nodes":[],"categories_segments":[],"categories_sizes":[],"default_left":[0,0,0,0,0,0,0,0,0,0,0,0,0,0,0,0,0,0,0,0,0,0,0,0,0,0,0,0,0,0,0,0,0,0,0,0,0,0,0,0,0,0,0,0,0,0,0,0,0,0,0,0,0,0,0,0,0,0,0,0,0,0,0,0,0,0,0,0,0,0,0,0,0,0,0,0,0,0,0,0,0,0,0],"id":9,"left_children":[1,3,5,7,9,11,13,15,17,19,21,23,25,27,29,-1,31,-1,33,-1,35,37,39,41,43,45,47,49,51,53,55,57,59,-1,-1,61,63,-1,65,-1,-1,-1,-1,67,69,71,-1,73,-1,75,77,-1,-1,-1,79,-1,81,-1,-1,-1,-1,-1,-1,-1,-1,-1,-1,-1,-1,-1,-1,-1,-1,-1,-1,-1,-1,-1,-1,-1,-1,-1,-1],"loss_changes":[4.978594E1,1.5200642E1,3.0196136E1,4.9706516E0,4.9083214E0,1.6985424E1,2.5005095E1,1.9685698E0,3.7007043E0,5.6527214E0,1.8644999E0,6.9060135E0,1.4547939E1,1.5805433E1,1.2961723E1,0E0,1.593873E0,0E0,1.218523E0,0E0,4.343788E0,2.2388191E0,9.381938E-1,5.812237E-1,4.8728523E0,7.723381E0,4.6779947E0,5.4530067E0,5.1827693E-1,6.6957836E0,2.3120897E0,8.453728E-1,1.2145286E0,0E0,0E0,1.0872304E0,2.828888E0,0E0,6.130049E-1,0E0,0E0,0E0,0E0,1.1989173E0,2.7962103E0,6.822609E0,0E0,5.505619E-1,0E0,6.097719E0,3.7647362E0,0E0,0E0,0E0,4.684555E0,0E0,8.3129025E-1,0E0,0E0,0E0,0E0,0E0,0E0,0E0,0E0,0E0,0E0,0E0,0E0,0E0,0E0,0E0,0E0,0E0,0E0,0E0,0E0,0E0,0E0,0E0,0E0,0E0,0E0],"parents":[2147483647,0,0,1,1,2,2,3,3,4,4,5,5,6,6,7,7,8,8,9,9,10,10,11,11,12,12,13,13,14,14,16,16,18,18,20,20,21,21,22,22,23,23,24,24,25,25,26,26,27,27,28,28,29,29,30,30,31,31,32,32,35,35,36,36,38,38,43,43,44,44,45,45,47,47,49,49,50,50,54,54,56,56],"right_children":[2,4,6,8,10,12,14,16,18,20,22,24,26,28,30,-1,32,-1,34,-1,36,38,40,42,44,46,48,50,52,54,56,58,60,-1,-1,62,64,-1,66,-1,-1,-1,-1,68,70,72,-1,74,-1,76,78,-1,-1,-1,80,-1,82,-1,-1,-1,-1,-1,-1,-1,-1,-1,-1,-1,-1,-1,-1,-1,-1,-1,-1,-1,-1,-1,-1,-1,-1,-1,-1],"split_conditions":[7.3709564E0,1.8473044E2,4.108231E2,1.576152E2,2.9107724E2,1.9844738E-1,4.3597427E2,2.3499468E-1,2.6972656E0,1.7766705E1,2.932667E3,1.2981705E-1,6.441347E2,3.8443413E-1,1.0747223E0,-1.6203592E-2,1.5184903E2,2.3462093E-2,4.6469936E1,1.6639126E-2,4.4225615E-1,1.005996E3,1.2981705E-1,4.0992056E2,6.024985E2,1.3780768E3,6.88899E1,2.0278526E2,2.5650424E-1,2.249579E1,4.2791645E1,5.073739E-1,-3.3816406E-1,6.519038E-3,-6.36368E-2,7.653184E0,1.0075698E-1,-2.2489958E-2,7.5684565E-1,8.762701E-3,-4.2354695E-2,-3.2150191E-3,5.095296E-2,5.656969E1,3.7911794E3,3.437455E2,-2.8991869E-2,6.4275166E3,2.6291735E-2,1.1904093E3,7.524755E1,-3.1862452E-3,4.6231292E-2,-2.5562348E-2,2.4088062E1,1.4743187E-2,1.2185831E1,1.5586688E-2,-2.3254288E-2,6.510285E-2,-3.7555203E-3,-1.9725109E-2,2.3533892E-2,3.7464441E-3,-1.2446419E-1,-3.32463E-3,4.7066025E-2,-1.377933E-2,3.5845168E-2,-6.6796E-2,4.888345E-3,8.4144525E-2,-1.786921E-2,-6.389548E-2,1.7077877E-3,-4.918744E-2,3.6136325E-2,-1.19173735E-1,-1.7604656E-3,-1.6678894E-2,9.835442E-2,4.0581855E-3,-6.252516E-2],"split_indices":[30,60,64,61,68,58,64,41,13,69,69,58,54,24,56,0,60,0,68,0,56,69,58,69,69,66,59,60,67,63,59,67,27,0,0,55,58,0,56,0,0,0,0,59,69,68,0,69,0,66,7,0,0,0,5,0,68,0,0,0,0,0,0,0,0,0,0,0,0,0,0,0,0,0,0,0,0,0,0,0,0,0,0],"split_type":[0,0,0,0,0,0,0,0,0,0,0,0,0,0,0,0,0,0,0,0,0,0,0,0,0,0,0,0,0,0,0,0,0,0,0,0,0,0,0,0,0,0,0,0,0,0,0,0,0,0,0,0,0,0,0,0,0,0,0,0,0,0,0,0,0,0,0,0,0,0,0,0,0,0,0,0,0,0,0,0,0,0,0],"sum_hessian":[4.1164084E2,9.6475E1,3.1516586E2,2.8606802E1,6.7868195E1,2.113392E2,1.0382665E2,1.6782858E1,1.1823944E1,5.515481E1,1.27133875E1,4.2791424E1,1.6854778E2,6.600818E1,3.7818474E1,1.3923205E0,1.5390537E1,2.848878E0,8.975065E0,1.3901299E0,5.376468E1,6.864859E0,5.8485284E0,7.067739E0,3.5723686E1,1.562571E2,1.2290683E1,5.7930206E1,8.0779705E0,2.8472433E1,9.346041E0,3.3593688E0,1.2031168E1,1.1841247E0,7.7909408E0,3.6283681E0,5.013631E1,2.12717E0,4.7376885E0,1.123081E0,4.7254477E0,1.352705E0,5.715034E0,6.6173105E0,2.9106375E1,1.5348985E2,2.7672405E0,8.04854E0,4.2421427E0,2.2082243E1,3.5847965E1,1.4339542E0,6.644016E0,2.1367671E0,2.6335667E1,2.1215312E0,7.2245092E0,1.6483824E0,1.7109865E0,9.525491E0,2.5056777E0,2.006338E0,1.6220301E0,1.6834594E0,4.8452854E1,2.0218356E0,2.7158532E0,1.1379346E0,5.479376E0,2.1595448E1,7.510927E0,1.4849963E2,4.990217E0,6.870475E0,1.1780655E0,1.55792E1,6.503043E0,3.105128E1,4.796685E0,1.3668559E0,2.4968811E1,1.1121378E0,6.1123714E0],"tree_param":{"num_deleted":"0","num_feature":"70","num_nodes":"83","size_leaf_vector":"1"}},{"base_weights":[-2.0501826E-2,-4.3276483E-1,2.44269E-1,-9.035127E-4,-6.094489E-1,6.5167594E-1,4.2378366E-2,4.0932024E-1,-2.4022307E-1,-6.702081E-1,5.816493E-2,7.978885E-1,-2.374195E-1,2.2034533E-1,-5.0433946E-1,-1.7764933E-2,5.250285E-1,1.8167107E-1,-7.871589E-2,9.27571E-2,-7.148577E-1,3.277666E-2,-1.6649216E-1,8.372619E-1,-1.0150264E-2,2.2199124E-2,-4.118551E-1,-1.2800409E-1,5.061426E-1,1.307956E-1,-6.453148E-1,1.027902E-3,5.493709E-1,4.0015587E-1,-1.8064442E-1,-2.074949E-2,3.287707E-2,1.1521645E-2,-7.534746E-1,-3.310727E-2,1.2452187E-2,8.91404E-1,-1.3808711E-2,-6.2490698E-2,1.2648945E-2,-3.121289E-1,3.0773398E-1,5.807651E-1,-3.3325437E-2,-2.0578267E-2,2.8125203E-1,1.331952E-2,-7.2303116E-1,7.001202E-2,3.4058825E-4,-1.5374984E-2,5.9472226E-2,2.501851E-2,-5.012524E-2,-9.2940986E-2,9.89774E-3,-5.293418E-4,1.1031322E-1,-3.0268904E-2,2.6814533E-2,3.472634E-2,-5.1215213E-2,-2.386592E-2,5.819025E-2,8.263783E-2,-2.1683002E-2,4.0277507E-2,-3.4643374E-3,-9.5486954E-2,7.967781E-3],"categories":[],"categories_nodes":[],"categories_segments":[],"categories_sizes":[],"default_left":[0,0,0,0,0,0,0,0,0,0,0,0,0,0,0,0,0,0,0,0,0,0,0,0,0,0,0,0,0,0,0,0,0,0,0,0,0,0,0,0,0,0,0,0,0,0,0,0,0,0,0,0,0,0,0,0,0,0,0,0,0,0,0,0,0,0,0,0,0,0,0,0,0,0,0],"id":10,"left_children":[1,3,5,7,9,11,13,15,17,19,21,23,25,27,29,-1,31,33,-1,35,37,-1,39,41,-1,-1,43,45,47,49,51,-1,53,55,57,-1,-1,-1,59,-1,-1,61,63,-1,-1,65,67,69,-1,-1,71,-1,73,-1,-1,-1,-1,-1,-1,-1,-1,-1,-1,-1,-1,-1,-1,-1,-1,-1,-1,-1,-1,-1,-1],"loss_changes":[4.7009853E1,1.282247E1,2.1216955E1,7.7427897E0,5.424431E0,1.4033955E1,2.0337425E1,3.040676E0,1.0517826E1,4.76083E0,1.8293799E0,3.7508926E0,2.8905878E0,1.6423655E1,5.893856E0,0E0,2.7353287E-1,3.9697502E0,0E0,1.6440933E0,4.4095917E0,0E0,1.0484246E0,3.6612701E0,0E0,0E0,2.0308948E0,8.013261E0,7.5833664E0,1.717671E0,3.8384933E0,0E0,4.573698E-1,2.3342657E0,3.5246115E0,0E0,0E0,0E0,2.7699356E0,0E0,0E0,1.8377609E0,1.9363801E0,0E0,0E0,6.338131E0,4.3089437E0,8.887201E0,0E0,0E0,4.873991E-1,0E0,3.2397099E0,0E0,0E0,0E0,0E0,0E0,0E0,0E0,0E0,0E0,0E0,0E0,0E0,0E0,0E0,0E0,0E0,0E0,0E0,0E0,0E0,0E0,0E0],"parents":[2147483647,0,0,1,1,2,2,3,3,4,4,5,5,6,6,7,7,8,8,9,9,10,10,11,11,12,12,13,13,14,14,16,16,17,17,19,19,20,20,22,22,23,23,26,26,27,27,28,28,29,29,30,30,32,32,33,33,34,34,38,38,41,41,42,42,45,45,46,46,47,47,50,50,52,52],"right_children":[2,4,6,8,10,12,14,16,18,20,22,24,26,28,30,-1,32,34,-1,36,38,-1,40,42,-1,-1,44,46,48,50,52,-1,54,56,58,-1,-1,-1,60,-1,-1,62,64,-1,-1,66,68,70,-1,-1,72,-1,74,-1,-1,-1,-1,-1,-1,-1,-1,-1,-1,-1,-1,-1,-1,-1,-1,-1,-1,-1,-1,-1,-1],"split_conditions":[7.438632E0,1.8230566E3,3.8617612E2,3.53538E-1,1.454726E0,2.418201E3,7.8821173E0,1.4365497E0,4.02104E2,2.008573E1,3.8334457E2,-3.5115835E-1,-4.045992E-1,3.3711624E3,6.0062137E-2,-1.7764933E-2,5.9950466E1,1.3097308E2,-7.871589E-2,7.480557E0,3.600982E2,3.277666E-2,1.52E2,1.3183939E3,-1.0150264E-2,2.2199124E-2,3.9398074E2,2.0338507E2,6.3614233E2,1.1389504E3,-1.51153E-4,1.027902E-3,1.2843524E3,4.9821338E-1,6.024985E2,-2.074949E-2,3.287707E-2,1.1521645E-2,4.0707245E0,-3.310727E-2,1.2452187E-2,7.394737E0,2.1632414E1,-6.2490698E-2,1.2648945E-2,1.0814519E3,1.4567964E0,1.429164E2,-3.3325437E-2,-2.0578267E-2,3.8400003E2,1.331952E-2,3.1299892E-1,7.001202E-2,3.4058825E-4,-1.5374984E-2,5.9472226E-2,2.501851E-2,-5.012524E-2,-9.2940986E-2,9.89774E-3,-5.293418E-4,1.1031322E-1,-3.0268904E-2,2.6814533E-2,3.472634E-2,-5.1215213E-2,-2.386592E-2,5.819025E-2,8.263783E-2,-2.1683002E-2,4.0277507E-2,-3.4643374E-3,-9.5486954E-2,7.967781E-3],"split_indices":[30,69,64,67,56,69,31,20,64,59,65,28,27,69,44,0,68,61,0,55,64,0,59,66,0,0,65,60,54,66,62,0,66,67,69,0,0,0,67,0,0,0,63,0,0,66,21,61,0,0,65,0,58,0,0,0,0,0,0,0,0,0,0,0,0,0,0,0,0,0,0,0,0,0,0],"split_type":[0,0,0,0,0,0,0,0,0,0,0,0,0,0,0,0,0,0,0,0,0,0,0,0,0,0,0,0,0,0,0,0,0,0,0,0,0,0,0,0,0,0,0,0,0,0,0,0,0,0,0,0,0,0,0,0,0,0,0,0,0,0,0,0,0,0,0,0,0,0,0,0,0,0,0],"sum_hessian":[4.0114307E2,1.5315494E2,2.4798814E2,4.8844105E1,1.0431084E2,7.109777E1,1.7689037E2,1.4070408E1,3.4773697E1,9.555604E1,8.754795E0,6.2378357E1,8.719417E0,1.4020538E2,3.668499E1,1.6982944E0,1.2372113E1,2.1450806E1,1.3322893E1,4.3893785E0,9.1166664E1,2.8196378E0,5.9351573E0,6.0449768E1,1.92859E0,2.2830276E0,6.436389E0,6.692018E1,7.3285194E1,6.8603325E0,2.9824657E1,1.4696424E0,1.0902472E1,1.2404182E1,9.046622E0,2.0587423E0,2.3306363E0,3.130846E0,8.803581E1,4.0023336E0,1.9328235E0,5.6165825E1,4.2839403E0,5.233316E0,1.2030731E0,5.0033337E1,1.6886843E1,7.046347E1,2.8217254E0,1.5831339E0,5.2771983E0,2.180588E0,2.764407E1,9.309488E0,1.592983E0,1.1122619E0,1.1291921E1,4.1094375E0,4.937185E0,8.6950615E1,1.0852019E0,2.0758445E0,5.408998E1,1.6644179E0,2.6195226E0,4.35118E0,4.568216E1,3.8997037E0,1.298714E1,6.2975353E1,7.488115E0,3.4393792E0,1.8378191E0,2.5203615E1,2.4404554E0],"tree_param":{"num_deleted":"0","num_feature":"70","num_nodes":"75","size_leaf_vector":"1"}},{"base_weights":[1.1397137E-2,-1.5999025E-1,4.9674845E-1,-5.614077E-1,3.8464598E-3,6.395045E-1,1.4355531E-2,-6.403887E-1,2.2792037E-1,1.258339E-1,-3.5853735E-1,7.1613634E-1,-6.42019E-2,-3.2672942E-1,3.3178627E-1,1.734168E-2,-6.833857E-1,3.4280423E-2,-4.6475558E-3,-4.6491165E-2,3.7596518E-1,-8.191036E-1,3.7771162E-1,7.8632474E-1,1.5229042E-1,1.4739175E-1,-2.960032E-2,1.5393464E-1,-4.9568728E-1,-1.7410679E-2,4.2964676E-1,4.4991978E-2,-7.5332147E-1,-2.4388668E-1,3.3441913E-1,5.117484E-1,-1.0008974E-1,-9.143817E-1,1.0659032E-2,-2.2191228E-2,4.9714687E-1,-6.934922E-3,8.2539284E-1,4.254691E-1,-3.7018016E-2,2.5983904E-2,-8.096382E-3,-6.643491E-3,2.6396787E-2,8.072012E-3,-7.1027674E-2,4.813259E-1,-5.0469236E-3,2.9352207E-2,-2.4894606E-2,-1.03210844E-1,-2.963335E-3,-5.0826333E-2,2.8546114E-2,-2.3791565E-2,5.9911404E-2,-1.638642E-2,7.225763E-2,2.7015654E-2,-3.4972426E-2,-1.1863546E-1,8.8838115E-3,7.2330944E-2,-5.7323715E-3,-1.0932232E-3,1.01972446E-1,-3.6955725E-3,5.7116736E-2,6.088337E-2,-7.14667E-4],"categories":[],"categories_nodes":[],"categories_segments":[],"categories_sizes":[],"default_left":[0,0,0,0,0,0,0,0,0,0,0,0,0,0,0,0,0,0,0,0,0,0,0,0,0,0,0,0,0,0,0,0,0,0,0,0,0,0,0,0,0,0,0,0,0,0,0,0,0,0,0,0,0,0,0,0,0,0,0,0,0,0,0,0,0,0,0,0,0,0,0,0,0,0,0],"id":11,"left_children":[1,3,5,7,9,11,13,15,17,19,21,23,25,27,29,-1,31,-1,-1,33,35,37,39,41,43,45,-1,47,49,-1,51,53,55,57,59,61,63,65,-1,-1,67,-1,69,71,-1,-1,-1,-1,-1,-1,-1,73,-1,-1,-1,-1,-1,-1,-1,-1,-1,-1,-1,-1,-1,-1,-1,-1,-1,-1,-1,-1,-1,-1,-1],"loss_changes":[3.621638E1,2.1243248E1,7.6807957E0,8.023445E0,1.1460141E1,5.395485E0,6.0944753E0,4.4852333E0,4.673916E-1,8.607223E0,2.679388E1,1.3669586E0,1.4077055E0,3.3739579E0,2.2799568E0,0E0,4.9403E0,0E0,0E0,1.0846158E1,5.97985E0,5.10446E0,3.7583518E0,2.940773E0,5.424118E0,5.122712E-1,0E0,4.395553E-1,1.8898668E0,0E0,9.788685E-1,1.8584925E0,5.922592E0,9.558605E0,5.876052E0,5.053581E0,2.87837E0,4.17902E0,0E0,0E0,2.3467913E0,0E0,1.4480705E0,7.6226854E-1,0E0,0E0,0E0,0E0,0E0,0E0,0E0,3.7732124E-1,0E0,0E0,0E0,0E0,0E0,0E0,0E0,0E0,0E0,0E0,0E0,0E0,0E0,0E0,0E0,0E0,0E0,0E0,0E0,0E0,0E0,0E0,0E0],"parents":[2147483647,0,0,1,1,2,2,3,3,4,4,5,5,6,6,7,7,8,8,9,9,10,10,11,11,12,12,13,13,14,14,16,16,19,19,20,20,21,21,22,22,23,23,24,24,25,25,27,27,28,28,30,30,31,31,32,32,33,33,34,34,35,35,36,36,37,37,40,40,42,42,43,43,51,51],"right_children":[2,4,6,8,10,12,14,16,18,20,22,24,26,28,30,-1,32,-1,-1,34,36,38,40,42,44,46,-1,48,50,-1,52,54,56,58,60,62,64,66,-1,-1,68,-1,70,72,-1,-1,-1,-1,-1,-1,-1,74,-1,-1,-1,-1,-1,-1,-1,-1,-1,-1,-1,-1,-1,-1,-1,-1,-1,-1,-1,-1,-1,-1,-1],"split_conditions":[1.4368695E0,7.3709564E0,6.7277506E-2,3.93E2,7.455024E-2,1.3610641E0,1.2617709E3,-1.457546E-2,3.0122964E2,2.5259385E-1,3.8428885E2,1.3159613E3,1.5280916E2,-3.5321918E-1,7.28454E-2,1.734168E-2,3.7733234E2,3.4280423E-2,-4.6475558E-3,2.6573652E1,7.632037E0,1.3266658E2,1.7742928E1,5.8436985E1,3.8252597E2,1.7069689E1,-2.960032E-2,-3.2471707E-1,9.71107E-1,-1.7410679E-2,4.0810388E2,8.971624E0,-7.522043E-1,7.8737073E0,3.0122964E2,4.845192E1,8.146564E2,3.948043E1,1.0659032E-2,-2.2191228E-2,1.5033203E-1,-6.934922E-3,5.4674544E0,3.2113886E-1,-3.7018016E-2,2.5983904E-2,-8.096382E-3,-6.643491E-3,2.6396787E-2,8.072012E-3,-7.1027674E-2,3.0383633E2,-5.0469236E-3,2.9352207E-2,-2.4894606E-2,-1.03210844E-1,-2.963335E-3,-5.0826333E-2,2.8546114E-2,-2.3791565E-2,5.9911404E-2,-1.638642E-2,7.225763E-2,2.7015654E-2,-3.4972426E-2,-1.1863546E-1,8.8838115E-3,7.2330944E-2,-5.7323715E-3,-1.0932232E-3,1.01972446E-1,-3.6955725E-3,5.7116736E-2,6.088337E-2,-7.14667E-4],"split_indices":[56,30,47,65,45,67,66,57,54,58,65,66,60,26,46,0,65,0,0,63,30,61,17,61,65,63,0,27,57,0,64,17,29,33,54,68,69,12,0,0,26,0,55,41,0,0,0,0,0,0,0,68,0,0,0,0,0,0,0,0,0,0,0,0,0,0,0,0,0,0,0,0,0,0,0],"split_type":[0,0,0,0,0,0,0,0,0,0,0,0,0,0,0,0,0,0,0,0,0,0,0,0,0,0,0,0,0,0,0,0,0,0,0,0,0,0,0,0,0,0,0,0,0,0,0,0,0,0,0,0,0,0,0,0,0,0,0,0,0,0,0,0,0,0,0,0,0,0,0,0,0,0,0],"sum_hessian":[4.060502E2,3.0751562E2,9.853458E1,7.858196E1,2.2893365E2,7.226391E1,2.6270666E1,7.40071E1,4.5748596E0,1.7860287E2,5.0330776E1,6.492841E1,7.3354955E0,1.2451695E1,1.3818971E1,2.004265E0,7.200284E1,2.8809612E0,1.6938984E0,1.1297918E2,6.56237E1,2.9923721E1,2.0407057E1,5.2477345E1,1.2451068E1,4.7318153E0,2.6036801E0,3.5854082E0,8.866287E0,1.1203473E0,1.2698624E1,6.776447E0,6.522639E1,7.796962E1,3.5009556E1,5.0184986E1,1.5438718E1,2.6985277E1,2.9384432E0,2.1331224E0,1.8273935E1,2.003373E0,5.0473972E1,8.538288E0,3.9127798E0,3.491596E0,1.2402194E0,1.4415767E0,2.1438313E0,1.9527377E0,6.91355E0,1.1169007E1,1.5296159E0,4.044566E0,2.731881E0,5.452955E1,1.0696842E1,5.8111008E1,1.9858616E1,7.5549407E0,2.7454613E1,5.204176E0,4.498081E1,4.737824E0,1.0700893E1,2.5096798E1,1.8884796E0,1.3973506E1,4.3004284E0,1.6992404E0,4.877473E1,1.4342299E0,7.1040587E0,1.0015742E1,1.1532649E0],"tree_param":{"num_deleted":"0","num_feature":"70","num_nodes":"75","size_leaf_vector":"1"}},{"base_weights":[2.4853216E-2,3.012946E-1,-2.528292E-1,-2.6630262E-1,4.806037E-1,-5.89403E-1,-1.1472716E-1,-5.9211314E-1,2.6949084E-1,-6.2312625E-2,5.8393526E-1,1.2600773E-2,-6.4097965E-1,2.1043094E-1,-2.800393E-1,-6.953573E-1,1.1354363E-1,-2.652706E-2,4.092422E-1,3.4978654E-2,-2.5948337E-1,-7.077707E-2,6.465305E-1,-6.9560844E-1,1.2431605E-2,-1.6326566E-1,4.1167465E-1,2.3167358E-1,-5.423099E-1,9.223638E-3,-7.4726796E-1,-1.4778719E-2,2.8489517E-2,5.8313715E-1,-1.3378994E-1,-3.9595866E-1,1.3132001E-1,-4.9512945E-2,3.0281183E-1,-9.1301E-2,6.925581E-1,-2.8123466E-2,-8.1408197E-1,2.4161848E-1,-3.6665347E-1,5.0154877E-1,-1.9202165E-2,4.7333965E-1,-3.2535905E-1,-6.141129E-1,2.6672477E-2,-9.459393E-2,4.539767E-3,-8.042086E-4,7.4215166E-2,-3.4227718E-2,1.833556E-2,-5.787552E-2,8.929212E-3,2.91372E-2,-1.3943459E-2,-8.506796E-3,4.5449957E-2,2.1393055E-2,-3.343916E-2,8.9911506E-2,-4.1546565E-3,-3.3593938E-2,2.7632434E-2,6.305173E-3,-1.02823354E-1,3.518241E-2,-4.8846626E-3,-6.376498E-2,1.2252294E-2,6.745728E-2,-1.5114425E-2,6.9431745E-2,-1.860839E-2,2.2324517E-2,-5.826045E-2,-1.9394374E-2,-9.7053535E-2],"categories":[],"categories_nodes":[],"categories_segments":[],"categories_sizes":[],"default_left":[0,0,0,0,0,0,0,0,0,0,0,0,0,0,0,0,0,0,0,0,0,0,0,0,0,0,0,0,0,0,0,0,0,0,0,0,0,0,0,0,0,0,0,0,0,0,0,0,0,0,0,0,0,0,0,0,0,0,0,0,0,0,0,0,0,0,0,0,0,0,0,0,0,0,0,0,0,0,0,0,0,0,0],"id":12,"left_children":[1,3,5,7,9,11,13,15,17,19,21,-1,23,25,27,29,31,-1,33,-1,35,37,39,41,-1,43,45,47,49,-1,51,-1,-1,53,55,57,59,-1,61,63,65,67,69,71,73,75,-1,77,79,81,-1,-1,-1,-1,-1,-1,-1,-1,-1,-1,-1,-1,-1,-1,-1,-1,-1,-1,-1,-1,-1,-1,-1,-1,-1,-1,-1,-1,-1,-1,-1,-1,-1],"loss_changes":[3.3034737E1,2.3805601E1,8.99883E0,1.3090387E1,1.0013527E1,3.1244755E0,1.009565E1,4.3022594E0,3.652197E0,3.9624586E0,6.556053E0,0E0,3.4026108E0,5.996114E0,1.79958E1,2.4425735E0,9.7680026E-1,0E0,4.127576E0,0E0,2.5915806E0,5.1967998E0,5.43832E0,4.0155125E0,0E0,4.1250772E0,3.637702E0,9.200947E0,6.6512356E0,0E0,1.682375E0,0E0,0E0,6.1471367E-1,1.5129399E0,1.7124028E0,9.766521E-1,0E0,1.0010315E0,1.8066367E0,5.592533E0,2.5185971E0,2.3909302E0,4.7595274E-1,3.0190897E0,2.756484E0,0E0,4.1114483E0,3.3513348E0,5.142948E0,0E0,0E0,0E0,0E0,0E0,0E0,0E0,0E0,0E0,0E0,0E0,0E0,0E0,0E0,0E0,0E0,0E0,0E0,0E0,0E0,0E0,0E0,0E0,0E0,0E0,0E0,0E0,0E0,0E0,0E0,0E0,0E0,0E0],"parents":[2147483647,0,0,1,1,2,2,3,3,4,4,5,5,6,6,7,7,8,8,9,9,10,10,12,12,13,13,14,14,15,15,16,16,18,18,20,20,21,21,22,22,23,23,25,25,26,26,27,27,28,28,30,30,33,33,34,34,35,35,36,36,38,38,39,39,40,40,41,41,42,42,43,43,44,44,45,45,47,47,48,48,49,49],"right_children":[2,4,6,8,10,12,14,16,18,20,22,-1,24,26,28,30,32,-1,34,-1,36,38,40,42,-1,44,46,48,50,-1,52,-1,-1,54,56,58,60,-1,62,64,66,68,70,72,74,76,-1,78,80,82,-1,-1,-1,-1,-1,-1,-1,-1,-1,-1,-1,-1,-1,-1,-1,-1,-1,-1,-1,-1,-1,-1,-1,-1,-1,-1,-1,-1,-1,-1,-1,-1,-1],"split_conditions":[2.0285796E2,1.9363044E-1,7.3709564E0,7.095535E1,5.9291954E1,1.4513951E2,4.6156403E-2,3.93E2,1.4481623E0,2.193028E-1,1.8244857E-1,1.2600773E-2,1.4704516E0,1.3152556E1,1.2073863E1,2.459961E0,-1.565805E-1,-2.652706E-2,2.2071922E2,3.4978654E-2,6.899008E-1,3.8384808E2,1.2331055E1,9.759555E1,1.2431605E-2,7.636098E-2,1.1812314E0,1.7194316E2,3.8793887E2,9.223638E-3,4.2606302E2,-1.4778719E-2,2.8489517E-2,4.522116E1,1.9844328E2,9.9172765E-1,1.2724832E3,-4.9512945E-2,1.3787891E0,3.2452498E-2,7.7256294E1,7.9822645E0,6.316258E-2,1.8675953E1,1.2676215E-2,-2.0506848E-1,-1.9202165E-2,9.02344E-3,7.038462E-2,1.6555302E3,2.6672477E-2,-9.459393E-2,4.539767E-3,-8.042086E-4,7.4215166E-2,-3.4227718E-2,1.833556E-2,-5.787552E-2,8.929212E-3,2.91372E-2,-1.3943459E-2,-8.506796E-3,4.5449957E-2,2.1393055E-2,-3.343916E-2,8.9911506E-2,-4.1546565E-3,-3.3593938E-2,2.7632434E-2,6.305173E-3,-1.02823354E-1,3.518241E-2,-4.8846626E-3,-6.376498E-2,1.2252294E-2,6.745728E-2,-1.5114425E-2,6.9431745E-2,-1.860839E-2,2.2324517E-2,-5.826045E-2,-1.9394374E-2,-9.7053535E-2],"split_indices":[60,58,30,59,61,69,42,65,22,38,38,0,56,55,55,13,24,0,61,0,67,65,15,54,0,47,57,68,65,0,64,0,0,68,60,57,66,0,23,42,59,55,67,17,62,24,0,62,57,69,0,0,0,0,0,0,0,0,0,0,0,0,0,0,0,0,0,0,0,0,0,0,0,0,0,0,0,0,0,0,0,0,0],"split_type":[0,0,0,0,0,0,0,0,0,0,0,0,0,0,0,0,0,0,0,0,0,0,0,0,0,0,0,0,0,0,0,0,0,0,0,0,0,0,0,0,0,0,0,0,0,0,0,0,0,0,0,0,0,0,0,0,0,0,0,0,0,0,0,0,0,0,0,0,0,0,0,0,0,0,0,0,0,0,0,0,0,0,0],"sum_hessian":[4.0046228E2,2.000404E2,2.0042188E2,4.6276436E1,1.5376398E2,4.404933E1,1.5637254E2,2.779678E1,1.8479656E1,2.5538126E1,1.2822585E2,1.9711764E0,4.2078156E1,5.1325233E1,1.0504732E2,2.4439922E1,3.3568566E0,2.1623726E0,1.6317284E1,6.5712953E0,1.896683E1,1.1018422E1,1.1720742E2,4.0121014E1,1.9571445E0,1.895597E1,3.2369263E1,3.6189114E1,6.88582E1,1.0852587E0,2.3354664E1,1.1828701E0,2.1739864E0,1.1520328E1,4.796956E0,1.3910997E1,5.0558324E0,4.9356704E0,6.0827518E0,6.015976E0,1.11191444E2,8.845548E0,3.1275465E1,5.3955374E0,1.3560433E1,2.9562288E1,2.806972E0,2.6811003E1,9.378111E0,6.564531E1,3.212894E0,2.2137352E1,1.2173116E0,1.3376411E0,1.0182687E1,3.1848955E0,1.6120603E0,1.1432225E1,2.4787726E0,3.6823382E0,1.3734941E0,1.1956869E0,4.887065E0,2.7649295E0,3.2510464E0,1.02725555E2,8.465891E0,3.845986E0,4.9995623E0,1.3101826E0,2.9965282E1,4.0742135E0,1.3213239E0,8.551607E0,5.0088263E0,2.8383732E1,1.1785572E0,2.3982878E1,2.8281248E0,1.6580665E0,7.7200446E0,2.8004282E1,3.7641026E1],"tree_param":{"num_deleted":"0","num_feature":"70","num_nodes":"83","size_leaf_vector":"1"}},{"base_weights":[4.1453343E-2,-3.3987838E-1,2.3478031E-1,-2.525443E-2,-6.2530565E-1,4.3353257E-1,1.6196163E-2,-3.7257627E-1,3.5152814E-1,-2.0750187E-2,-7.62995E-1,4.8272738E-1,-2.5889128E-1,2.5211465E-1,-2.0328923E-1,1.6796371E-1,-6.119446E-1,-8.972736E-2,5.110165E-1,3.2562545E-1,-3.0237374E-1,-8.286533E-1,8.5606195E-2,5.719993E-1,6.188687E-2,6.139415E-3,-3.8381573E-2,4.5116523E-1,-1.56086E-1,4.1051064E-2,-5.693826E-1,-2.7199663E-2,3.3920535E-1,8.217322E-3,-6.60013E-1,-3.731247E-2,1.5641458E-1,-1.2558692E-2,5.731857E-1,4.4521794E-2,-1.1886623E-3,6.8380415E-2,-4.719735E-2,7.966869E-3,-8.667617E-1,-1.3088167E-2,2.3951503E-2,-7.088927E-2,6.3715714E-1,-2.9456514E-1,4.0638798E-1,5.493702E-1,-1.5451592E-1,-3.6762106E-1,2.0695631E-1,-1.8035148E-1,2.91269E-1,1.6068347E-2,-6.918386E-1,4.9993377E-2,-8.059547E-3,-8.274119E-2,2.4570322E-3,-1.2234286E-2,3.287403E-2,-3.0655758E-3,7.290833E-2,-1.005154E-2,1.8526895E-2,-1.11153826E-1,3.7870974E-5,-3.8181584E-2,2.686914E-2,-1.4793286E-3,8.4515944E-2,-5.2203625E-2,2.2517506E-2,6.708707E-2,-2.3244465E-2,-9.884235E-3,7.749391E-2,1.5948296E-2,-3.518343E-2,-5.8687318E-2,2.0241203E-2,-2.204314E-2,4.9605247E-2,-5.3540226E-2,3.2855142E-2,5.013456E-2,-2.5484322E-2,9.55491E-3,-9.08685E-2],"categories":[],"categories_nodes":[],"categories_segments":[],"categories_sizes":[],"default_left":[0,0,0,0,0,0,0,0,0,0,0,0,0,0,0,0,0,0,0,0,0,0,0,0,0,0,0,0,0,0,0,0,0,0,0,0,0,0,0,0,0,0,0,0,0,0,0,0,0,0,0,0,0,0,0,0,0,0,0,0,0,0,0,0,0,0,0,0,0,0,0,0,0,0,0,0,0,0,0,0,0,0,0,0,0,0,0,0,0,0,0,0,0],"id":13,"left_children":[1,3,5,7,9,11,13,15,17,19,21,23,25,27,29,31,33,35,37,39,41,43,45,47,49,-1,-1,51,53,55,57,-1,59,-1,61,-1,63,-1,65,-1,-1,67,-1,-1,69,-1,-1,71,73,75,77,79,81,83,85,87,89,-1,91,-1,-1,-1,-1,-1,-1,-1,-1,-1,-1,-1,-1,-1,-1,-1,-1,-1,-1,-1,-1,-1,-1,-1,-1,-1,-1,-1,-1,-1,-1,-1,-1,-1,-1],"loss_changes":[3.1077028E1,1.2558384E1,1.1964593E1,1.2879506E1,5.9286957E0,6.811535E0,8.426842E0,8.099394E0,4.0463924E0,4.321474E0,4.4024315E0,4.7495384E0,6.116836E-1,7.3919463E0,7.9467745E0,2.9997993E0,1.9324799E0,2.114149E0,2.3272943E0,3.6427736E-1,1.207922E0,2.8079567E0,7.237231E-1,5.458637E0,6.8816032E0,0E0,0E0,4.6203413E0,3.959927E0,4.3844457E0,4.403822E0,0E0,1.2081163E0,0E0,9.5918655E-1,0E0,1.0875247E0,0E0,9.7784996E-1,0E0,0E0,4.2270204E-1,0E0,0E0,2.8818665E0,0E0,0E0,2.8183963E0,4.714985E0,3.1922867E0,4.131497E0,3.9475842E0,1.3640594E0,3.0996528E0,3.0025558E0,7.1086493E0,3.6383507E0,0E0,2.531105E0,0E0,0E0,0E0,0E0,0E0,0E0,0E0,0E0,0E0,0E0,0E0,0E0,0E0,0E0,0E0,0E0,0E0,0E0,0E0,0E0,0E0,0E0,0E0,0E0,0E0,0E0,0E0,0E0,0E0,0E0,0E0,0E0,0E0,0E0],"parents":[2147483647,0,0,1,1,2,2,3,3,4,4,5,5,6,6,7,7,8,8,9,9,10,10,11,11,12,12,13,13,14,14,15,15,16,16,17,17,18,18,19,19,20,20,21,21,22,22,23,23,24,24,27,27,28,28,29,29,30,30,32,32,34,34,36,36,38,38,41,41,44,44,47,47,48,48,49,49,50,50,51,51,52,52,53,53,54,54,55,55,56,56,58,58],"right_children":[2,4,6,8,10,12,14,16,18,20,22,24,26,28,30,32,34,36,38,40,42,44,46,48,50,-1,-1,52,54,56,58,-1,60,-1,62,-1,64,-1,66,-1,-1,68,-1,-1,70,-1,-1,72,74,76,78,80,82,84,86,88,90,-1,92,-1,-1,-1,-1,-1,-1,-1,-1,-1,-1,-1,-1,-1,-1,-1,-1,-1,-1,-1,-1,-1,-1,-1,-1,-1,-1,-1,-1,-1,-1,-1,-1,-1,-1],"split_conditions":[7.3964276E0,3.989811E2,2.0166945E2,6.80242E1,-3.62E-6,7.321429E1,3.8301575E2,1.2522693E3,1.5296485E0,3.53538E-1,-7.522043E-1,1.304088E3,-3.965249E-1,2.371753E-3,2.5928848E1,7.164318E0,1.57690735E1,2.2123917E2,9.324936E1,1.2686524E1,5.157865E-1,1.6936446E2,3.8499744E2,5.835686E1,3.9155536E2,6.139415E-3,-3.8381573E-2,6.7284224E3,1.4612219E0,2.0330801E2,6.630321E1,-2.7199663E-2,3.9371878E2,8.217322E-3,3.437455E2,-3.731247E-2,-1.681579E-1,-1.2558692E-2,7.003991E1,4.4521794E-2,-1.1886623E-3,8.231854E0,-4.719735E-2,7.966869E-3,4.3998605E2,-1.3088167E-2,2.3951503E-2,3.5914704E-1,-5.1933634E-1,1.6773011E-1,7.68175E0,7.990722E-2,-9.550685E-1,9.020388E2,4.115009E2,3.8507867E2,1.4010847E-1,1.6068347E-2,7.990722E-2,4.9993377E-2,-8.059547E-3,-8.274119E-2,2.4570322E-3,-1.2234286E-2,3.287403E-2,-3.0655758E-3,7.290833E-2,-1.005154E-2,1.8526895E-2,-1.11153826E-1,3.7870974E-5,-3.8181584E-2,2.686914E-2,-1.4793286E-3,8.4515944E-2,-5.2203625E-2,2.2517506E-2,6.708707E-2,-2.3244465E-2,-9.884235E-3,7.749391E-2,1.5948296E-2,-3.518343E-2,-5.8687318E-2,2.0241203E-2,-2.204314E-2,4.9605247E-2,-5.3540226E-2,3.2855142E-2,5.013456E-2,-2.5484322E-2,9.55491E-3,-9.08685E-2],"split_indices":[31,64,60,59,62,8,65,66,23,67,29,66,27,62,4,30,68,68,54,55,56,60,65,61,64,0,0,69,22,60,61,0,65,0,68,0,24,0,59,0,0,55,0,0,64,0,0,67,40,62,31,57,29,54,64,65,40,0,57,0,0,0,0,0,0,0,0,0,0,0,0,0,0,0,0,0,0,0,0,0,0,0,0,0,0,0,0,0,0,0,0,0,0],"split_type":[0,0,0,0,0,0,0,0,0,0,0,0,0,0,0,0,0,0,0,0,0,0,0,0,0,0,0,0,0,0,0,0,0,0,0,0,0,0,0,0,0,0,0,0,0,0,0,0,0,0,0,0,0,0,0,0,0,0,0,0,0,0,0,0,0,0,0,0,0,0,0,0,0,0,0,0,0,0,0,0,0,0,0,0,0,0,0,0,0,0,0,0,0],"sum_hessian":[3.9030905E2,1.2748261E2,2.6282645E2,6.840622E1,5.9076393E1,1.2993228E2,1.3289417E2,3.5681824E1,3.2724396E1,1.4160809E1,4.4915585E1,1.2555462E2,4.3776526E0,6.2974625E1,6.991954E1,1.2324741E1,2.3357082E1,1.0429696E1,2.22947E1,5.2993526E0,8.861456E0,4.2017216E1,2.8983684E0,9.9137146E1,2.6417475E1,1.1151804E0,3.2624722E0,4.1270916E1,2.1703709E1,4.9919785E1,1.999976E1,2.26055E0,1.0064191E1,1.1209469E0,2.2236135E1,3.413395E0,7.0163016E0,1.1046017E0,2.1190098E1,3.270596E0,2.0287564E0,2.4782674E0,6.383189E0,1.2612908E0,4.0755924E1,1.3095405E0,1.5888278E0,9.001656E0,9.013549E1,1.4052137E1,1.2365337E1,3.671287E1,4.558046E0,1.3593787E1,8.1099205E0,2.870703E1,2.1212755E1,2.7579913E0,1.7241768E1,8.13627E0,1.9279213E0,2.1121712E1,1.114423E0,2.8156624E0,4.2006392E0,1.3601801E0,1.9829918E1,1.0365994E0,1.4416679E0,3.717954E1,3.5763872E0,4.248305E0,4.7533507E0,9.592346E0,8.0543144E1,1.201878E1,2.0333574E0,1.0675119E1,1.6902181E0,5.15035E0,3.1562521E1,1.6868412E0,2.8712046E0,1.2161183E1,1.4326036E0,3.374772E0,4.7351484E0,1.8274273E1,1.0432756E1,1.899734E1,2.215416E0,1.092431E0,1.6149338E1],"tree_param":{"num_deleted":"0","num_feature":"70","num_nodes":"93","size_leaf_vector":"1"}},{"base_weights":[3.9251916E-2,2.3406075E-1,-1.9567093E-1,4.0425238E-1,-1.20605454E-1,-3.1595773E-1,3.3776626E-1,4.7397643E-1,-3.6351788E-1,-4.73479E-1,2.876177E-1,2.9522747E-1,-4.236196E-1,-1.3048166E-1,5.3995675E-1,1.8158092E-1,6.760875E-1,3.0275942E-3,-4.8385967E-2,2.7645292E-2,-6.143304E-1,5.1238304E-1,-2.7371985E-1,4.0412506E-1,-2.0989537E-2,2.4881068E-1,-4.7536817E-1,-3.9864745E-2,1.5722805E-1,5.922668E-1,-7.0592645E-3,-2.4674931E-1,4.2626408E-1,-2.9531227E-2,7.313448E-1,-7.0709985E-1,1.7105918E-2,-1.7757818E-2,6.0223967E-1,1.1495348E-1,-5.328052E-2,-1.4113054E-2,4.8826313E-1,-2.3939742E-3,3.4809515E-2,-5.5439264E-1,1.3124898E-1,-1.7038241E-2,3.6095515E-2,7.513907E-2,-1.2601186E-4,-6.216884E-2,2.0617794E-2,-3.9810617E-3,7.248589E-2,-2.4774535E-2,1.8455638E-2,-8.524469E-3,9.107885E-2,-9.3828365E-2,1.469007E-2,-1.272149E-2,8.00281E-2,-1.6798234E-2,3.0293813E-2,-4.4119265E-3,6.598993E-2,-7.3439576E-2,1.6476454E-2,3.5889234E-2,-2.1320667E-2],"categories":[],"categories_nodes":[],"categories_segments":[],"categories_sizes":[],"default_left":[0,0,0,0,0,0,0,0,0,0,0,0,0,0,0,0,0,0,0,0,0,0,0,0,0,0,0,0,0,0,0,0,0,0,0,0,0,0,0,0,0,0,0,0,0,0,0,0,0,0,0,0,0,0,0,0,0,0,0,0,0,0,0,0,0,0,0,0,0,0,0],"id":14,"left_children":[1,3,5,7,9,11,13,15,17,19,21,23,25,27,29,31,33,-1,-1,-1,35,37,39,41,-1,43,45,-1,47,49,-1,51,53,55,57,59,-1,-1,61,63,-1,-1,65,-1,-1,67,69,-1,-1,-1,-1,-1,-1,-1,-1,-1,-1,-1,-1,-1,-1,-1,-1,-1,-1,-1,-1,-1,-1,-1,-1],"loss_changes":[1.870084E1,1.4132082E1,1.3574497E1,1.0799881E1,1.4077105E1,1.2405545E1,4.993971E0,6.857586E0,4.8078585E-1,7.1272125E0,8.168064E0,2.739869E0,6.722845E0,2.2125041E0,1.5238018E0,1.0032434E1,3.5028763E0,0E0,0E0,0E0,4.752493E0,3.683339E0,2.3222659E0,2.2295346E0,0E0,3.0873013E-1,7.6687775E0,0E0,1.513935E0,6.2822723E-1,0E0,5.7449293E0,4.9434834E0,1.1359707E0,2.4988518E0,4.1429844E0,0E0,0E0,2.7901096E0,1.1989079E0,0E0,0E0,1.2662954E0,0E0,0E0,6.211647E0,2.2457602E0,0E0,0E0,0E0,0E0,0E0,0E0,0E0,0E0,0E0,0E0,0E0,0E0,0E0,0E0,0E0,0E0,0E0,0E0,0E0,0E0,0E0,0E0,0E0,0E0],"parents":[2147483647,0,0,1,1,2,2,3,3,4,4,5,5,6,6,7,7,8,8,9,9,10,10,11,11,12,12,13,13,14,14,15,15,16,16,20,20,21,21,22,22,23,23,25,25,26,26,28,28,29,29,31,31,32,32,33,33,34,34,35,35,38,38,39,39,42,42,45,45,46,46],"right_children":[2,4,6,8,10,12,14,16,18,20,22,24,26,28,30,32,34,-1,-1,-1,36,38,40,42,-1,44,46,-1,48,50,-1,52,54,56,58,60,-1,-1,62,64,-1,-1,66,-1,-1,68,70,-1,-1,-1,-1,-1,-1,-1,-1,-1,-1,-1,-1,-1,-1,-1,-1,-1,-1,-1,-1,-1,-1,-1,-1],"split_conditions":[4.040967E2,1.3170188E3,2.0477608E2,6.6642413E2,6.1699646E1,1.29143305E1,4.3514365E2,2.4726294E-1,-3.1034112E-1,5.5191494E1,2.1602538E2,8.24018E0,1.0814519E3,5.7326897E1,-5.898633E-1,1.4485562E0,5.8923576E1,3.0275942E-3,-4.8385967E-2,2.7645292E-2,3.473667E2,4.3621907E-1,7.186728E1,8.848041E0,-2.0989537E-2,4.2911932E2,7.222896E2,-3.9864745E-2,1.2470139E3,3.8400247E2,-7.0592645E-3,1.3616249E-2,4.0699178E-1,5.2567516E-2,2.6753714E1,4.0646484E1,1.7105918E-2,-1.7757818E-2,1.6573508E-1,2.4833336E1,-5.328052E-2,-1.4113054E-2,7.505844E0,-2.3939742E-3,3.4809515E-2,3.6069336E1,5.3171885E-1,-1.7038241E-2,3.6095515E-2,7.513907E-2,-1.2601186E-4,-6.216884E-2,2.0617794E-2,-3.9810617E-3,7.248589E-2,-2.4774535E-2,1.8455638E-2,-8.524469E-3,9.107885E-2,-9.3828365E-2,1.469007E-2,-1.272149E-2,8.00281E-2,-1.6798234E-2,3.0293813E-2,-4.4119265E-3,6.598993E-2,-7.3439576E-2,1.6476454E-2,3.5889234E-2,-2.1320667E-2],"split_indices":[64,66,60,54,59,63,64,58,25,61,68,33,66,59,28,23,61,0,0,0,68,51,59,55,0,69,54,0,69,65,0,62,41,47,69,12,0,0,38,5,0,0,30,0,0,13,57,0,0,0,0,0,0,0,0,0,0,0,0,0,0,0,0,0,0,0,0,0,0,0,0],"split_type":[0,0,0,0,0,0,0,0,0,0,0,0,0,0,0,0,0,0,0,0,0,0,0,0,0,0,0,0,0,0,0,0,0,0,0,0,0,0,0,0,0,0,0,0,0,0,0,0,0,0,0,0,0,0,0,0,0,0,0,0,0,0,0,0,0,0,0,0,0,0,0],"sum_hessian":[3.7861603E2,2.0700938E2,1.7160666E2,1.384669E2,6.854247E1,1.4502078E2,2.6585869E1,1.3220111E2,6.2657957E0,3.547747E1,3.3065002E1,1.7805914E1,1.27214874E2,9.622124E0,1.6963743E1,6.567089E1,6.653022E1,1.0871155E0,5.1786804E0,4.325946E0,3.1151525E1,2.4545063E1,8.519938E0,1.6167345E1,1.638569E0,5.0087843E0,1.2220609E2,4.292571E0,5.329553E0,1.575099E1,1.2127537E0,2.3829494E1,4.1841393E1,5.338813E0,6.119141E1,2.8629057E1,2.5224674E0,1.7776873E0,2.2767376E1,4.080413E0,4.439525E0,1.4165179E0,1.4750828E1,1.6981897E0,3.3105946E0,1.0926361E2,1.2942476E1,1.7816731E0,3.54788E0,1.411443E1,1.6365596E0,1.2294063E1,1.1535432E1,1.5077754E1,2.6763641E1,1.7539455E0,3.584867E0,1.253931E0,5.9937477E1,2.7050707E1,1.5783501E0,1.1021909E0,2.1665186E1,1.3344462E0,2.745967E0,2.186423E0,1.25644045E1,1.0245926E2,6.804352E0,8.696121E0,4.246355E0],"tree_param":{"num_deleted":"0","num_feature":"70","num_nodes":"71","size_leaf_vector":"1"}},{"base_weights":[-6.3134474E-3,-1.821107E-1,3.3451146E-1,1.2600666E-1,-3.3522037E-1,-2.6822728E-1,4.0673527E-1,-3.7264794E-1,3.0014366E-1,-4.2067766E-1,2.9908535E-1,2.2343034E-2,-4.420678E-1,1.8696493E-1,6.719456E-1,-5.139368E-1,2.077421E-2,4.934473E-1,-1.1123254E-1,4.244397E-3,-4.819709E-1,-1.3476387E-1,5.496445E-2,-5.8607098E-2,3.1104668E-3,4.147282E-1,-4.378533E-1,9.1673546E-2,-9.761718E-2,5.359366E-3,-5.608585E-1,5.511133E-1,-1.8172601E-2,-3.7366685E-1,2.557852E-1,3.2818407E-1,-5.3056926E-2,-6.058011E-1,-1.3088076E-1,-3.146423E-2,1.4064254E-2,6.595503E-1,1.3509417E-1,4.3466426E-2,-5.5838937E-1,1.4946837E-2,-2.7069304E-2,4.050718E-3,-7.401972E-2,7.225427E-2,-1.49545595E-2,2.2808941E-2,-6.600395E-2,4.8015952E-2,-1.2483959E-2,5.4799963E-2,-2.1931905E-2,-7.891467E-2,2.050582E-2,-4.103787E-2,2.2922307E-2,-1.5012515E-3,8.244167E-2,-2.3637412E-2,3.425966E-2,-2.0222202E-2,2.3725409E-2,6.9494243E-3,-7.4573554E-2],"categories":[],"categories_nodes":[],"categories_segments":[],"categories_sizes":[],"default_left":[0,0,0,0,0,0,0,0,0,0,0,0,0,0,0,0,0,0,0,0,0,0,0,0,0,0,0,0,0,0,0,0,0,0,0,0,0,0,0,0,0,0,0,0,0,0,0,0,0,0,0,0,0,0,0,0,0,0,0,0,0,0,0,0,0,0,0,0,0],"id":15,"left_children":[1,3,5,7,9,11,13,15,17,19,21,-1,23,25,27,29,-1,31,33,35,37,39,-1,-1,-1,41,43,-1,45,-1,47,49,-1,51,53,55,-1,57,59,-1,-1,61,63,65,67,-1,-1,-1,-1,-1,-1,-1,-1,-1,-1,-1,-1,-1,-1,-1,-1,-1,-1,-1,-1,-1,-1,-1,-1],"loss_changes":[2.397785E1,1.3072149E1,7.568823E0,1.022467E1,1.1657145E1,3.1006277E0,5.555933E0,3.8150544E0,7.2851996E0,4.329891E0,3.0062065E0,0E0,6.5666056E-1,1.5615793E1,4.804783E0,1.1445394E0,0E0,3.4103813E0,5.1147656E0,7.3356667E0,5.0881805E0,1.0928435E0,0E0,0E0,0E0,3.73592E0,2.1914277E0,0E0,9.57641E-1,0E0,1.2497358E0,3.0732994E0,0E0,4.389827E0,1.914498E0,3.1743882E0,0E0,5.81551E0,4.838432E0,0E0,0E0,7.867689E-1,3.5131574E0,1.1610738E0,1.5608416E0,0E0,0E0,0E0,0E0,0E0,0E0,0E0,0E0,0E0,0E0,0E0,0E0,0E0,0E0,0E0,0E0,0E0,0E0,0E0,0E0,0E0,0E0,0E0,0E0],"parents":[2147483647,0,0,1,1,2,2,3,3,4,4,5,5,6,6,7,7,8,8,9,9,10,10,12,12,13,13,14,14,15,15,17,17,18,18,19,19,20,20,21,21,25,25,26,26,28,28,30,30,31,31,33,33,34,34,35,35,37,37,38,38,41,41,42,42,43,43,44,44],"right_children":[2,4,6,8,10,12,14,16,18,20,22,-1,24,26,28,30,-1,32,34,36,38,40,-1,-1,-1,42,44,-1,46,-1,48,50,-1,52,54,56,-1,58,60,-1,-1,62,64,66,68,-1,-1,-1,-1,-1,-1,-1,-1,-1,-1,-1,-1,-1,-1,-1,-1,-1,-1,-1,-1,-1,-1,-1,-1],"split_conditions":[1.2755814E0,-7.5233614E-1,1.3420666E1,5.663403E1,3.910583E2,1.5199977E2,3.87E2,2.5155166E-1,1.0153371E0,5.790724E2,-1.8808219E-1,2.2343034E-2,7.278234E1,3.8376535E2,-5.001758E-1,1.0896892E3,2.077421E-2,7.6033966E1,4.3581427E2,7.632522E-2,-7.5548875E-1,1.5200023E2,5.496445E-2,-5.8607098E-2,3.1104668E-3,4.6648E-1,7.031363E1,9.1673546E-2,3.400586E1,5.359366E-3,3.9382718E2,-3.1307617E-1,-1.8172601E-2,2.0294942E2,3.1799678E3,2.268094E0,-5.3056926E-2,8.568959E-2,5.7326897E1,-3.146423E-2,1.4064254E-2,1.414961E0,-4.1951174E-1,3.8400003E2,1.0827148E1,1.4946837E-2,-2.7069304E-2,4.050718E-3,-7.401972E-2,7.225427E-2,-1.49545595E-2,2.2808941E-2,-6.600395E-2,4.8015952E-2,-1.2483959E-2,5.4799963E-2,-2.1931905E-2,-7.891467E-2,2.050582E-2,-4.103787E-2,2.2922307E-2,-1.5012515E-3,8.244167E-2,-2.3637412E-2,3.425966E-2,-2.0222202E-2,2.3725409E-2,6.9494243E-3,-7.4573554E-2],"split_indices":[56,40,15,59,65,60,65,58,56,69,25,0,59,65,28,66,0,59,64,46,29,60,0,0,0,49,68,0,11,0,64,26,0,60,69,67,0,47,59,0,0,20,29,65,14,0,0,0,0,0,0,0,0,0,0,0,0,0,0,0,0,0,0,0,0,0,0,0,0],"split_type":[0,0,0,0,0,0,0,0,0,0,0,0,0,0,0,0,0,0,0,0,0,0,0,0,0,0,0,0,0,0,0,0,0,0,0,0,0,0,0,0,0,0,0,0,0,0,0,0,0,0,0,0,0,0,0,0,0,0,0,0,0,0,0,0,0,0,0,0,0],"sum_hessian":[3.699397E2,2.4866408E2,1.21275604E2,8.342837E1,1.6523572E2,8.6211195E0,1.1265449E2,1.7167727E1,6.626064E1,1.5006937E2,1.5166348E1,2.0905821E0,6.5305376E0,7.559015E1,3.7064335E1,1.4332196E1,2.8355296E0,4.3042587E1,2.3218056E1,2.0678022E1,1.2939134E2,4.6786947E0,1.0487654E1,5.3472366E0,1.1833007E0,5.909283E1,1.6497318E1,3.3204266E1,3.8600717E0,1.1665927E0,1.3165604E1,4.1511726E1,1.5308627E0,1.3379416E1,9.838639E0,1.4284084E1,6.393937E0,8.760913E1,4.1782207E1,2.702482E0,1.9762129E0,2.0641617E1,3.8451218E1,5.224783E0,1.1272536E1,1.5565069E0,2.3035648E0,1.6449167E0,1.1520687E1,4.0117702E1,1.3940222E0,2.9104528E0,1.0468964E1,5.8222895E0,4.01635E0,1.2687358E1,1.5967267E0,8.428495E1,3.3241818E0,2.4668709E1,1.7113499E1,1.1310416E0,1.9510574E1,1.0538454E1,2.7912762E1,1.6159321E0,3.6088507E0,1.1599019E0,1.0112635E1],"tree_param":{"num_deleted":"0","num_feature":"70","num_nodes":"69","size_leaf_vector":"1"}},{"base_weights":[2.9715393E-2,-9.903979E-2,4.2684206E-1,-3.2745585E-1,1.1115961E-1,5.530027E-1,2.7087438E-3,2.505162E-1,-4.3097728E-1,-5.091988E-1,2.5870922E-1,6.406142E-1,-8.738294E-2,3.365653E-1,-2.978356E-1,-1.9918716E-2,3.7670702E-1,-5.610403E-1,2.0102248E-1,-6.6619694E-1,1.6581357E-1,5.447295E-1,7.345123E-3,7.3203975E-1,-8.6048536E-2,-2.9022288E-1,2.5930263E-2,-1.0146876E-2,5.006027E-2,2.4369188E-2,-4.8287058E-1,4.9093413E-1,-1.8336633E-2,-6.837014E-1,1.2071099E-1,-2.8581198E-2,3.7226713E-1,-8.641679E-2,1.1458907E-3,2.8790912E-2,-8.105441E-3,-1.8982276E-2,6.031481E-1,-4.065209E-1,2.6909018E-1,7.8531057E-1,-7.6709755E-2,1.3305032E-1,-2.8865121E-2,-4.1553695E-2,5.0199525E-3,4.6266187E-3,-5.456343E-1,-8.091555E-4,6.2195074E-2,-1.5584863E-2,-1.0148419E-1,-3.0477766E-2,4.2495385E-2,5.7628218E-2,-1.9630589E-2,-4.047749E-3,8.163326E-2,1.4319917E-2,-6.9408424E-2,-3.310774E-2,4.803792E-2,-3.2228115E-3,9.898158E-2,-2.0353736E-2,1.0703214E-2,-1.0954009E-2,2.711981E-2,-1.5948905E-3,-7.1494E-2],"categories":[],"categories_nodes":[],"categories_segments":[],"categories_sizes":[],"default_left":[0,0,0,0,0,0,0,0,0,0,0,0,0,0,0,0,0,0,0,0,0,0,0,0,0,0,0,0,0,0,0,0,0,0,0,0,0,0,0,0,0,0,0,0,0,0,0,0,0,0,0,0,0,0,0,0,0,0,0,0,0,0,0,0,0,0,0,0,0,0,0,0,0,0,0],"id":16,"left_children":[1,3,5,7,9,11,13,15,17,19,21,23,25,27,29,-1,31,33,35,37,39,41,43,45,47,49,-1,-1,-1,-1,51,53,-1,55,57,-1,59,-1,-1,-1,-1,-1,61,63,65,67,69,71,-1,-1,-1,-1,73,-1,-1,-1,-1,-1,-1,-1,-1,-1,-1,-1,-1,-1,-1,-1,-1,-1,-1,-1,-1,-1,-1],"loss_changes":[1.98156E1,1.4732076E1,5.0433273E0,1.0319013E1,1.7085112E1,4.929388E0,5.1939116E0,2.597363E0,1.2281136E1,5.553707E0,1.0242276E1,5.324398E0,2.2931907E0,1.3595848E0,4.002405E0,0E0,2.8683662E0,1.0503132E1,3.8141904E0,1.2995348E0,5.707985E-1,4.175085E0,1.1549954E1,3.494278E0,1.1837729E0,5.8159506E-1,0E0,0E0,0E0,0E0,1.1136222E0,4.2366123E-1,0E0,6.97921E0,3.94176E0,0E0,2.8919034E0,0E0,0E0,0E0,0E0,0E0,3.5278683E0,4.7784576E0,6.3095975E0,2.1866646E0,4.9482745E-1,6.900926E-1,0E0,0E0,0E0,0E0,4.887252E-1,0E0,0E0,0E0,0E0,0E0,0E0,0E0,0E0,0E0,0E0,0E0,0E0,0E0,0E0,0E0,0E0,0E0,0E0,0E0,0E0,0E0,0E0],"parents":[2147483647,0,0,1,1,2,2,3,3,4,4,5,5,6,6,7,7,8,8,9,9,10,10,11,11,12,12,13,13,14,14,16,16,17,17,18,18,19,19,20,20,21,21,22,22,23,23,24,24,25,25,30,30,31,31,33,33,34,34,36,36,42,42,43,43,44,44,45,45,46,46,47,47,52,52],"right_children":[2,4,6,8,10,12,14,16,18,20,22,24,26,28,30,-1,32,34,36,38,40,42,44,46,48,50,-1,-1,-1,-1,52,54,-1,56,58,-1,60,-1,-1,-1,-1,-1,62,64,66,68,70,72,-1,-1,-1,-1,74,-1,-1,-1,-1,-1,-1,-1,-1,-1,-1,-1,-1,-1,-1,-1,-1,-1,-1,-1,-1,-1,-1],"split_conditions":[1.4704516E0,5.8557916E-1,1.2980298E3,5.9446406E-1,7.035149E0,1.7594617E2,1.637117E0,4.2043412E-1,2.9705278E1,7.7477465E0,4.0503406E2,5.208661E2,1.9561073E2,3.7906647E2,8.761379E0,-1.9918716E-2,4.0288794E3,3.8507867E2,9.600886E-1,1.9191499E-1,1.5969249E2,1.06773445E2,1.2840176E1,8.282136E0,2.3785698E3,9.240039E-1,2.5930263E-2,-1.0146876E-2,5.006027E-2,2.4369188E-2,2.094374E-1,-3.490411E-1,-1.8336633E-2,3.959761E2,1.775756E1,-2.8581198E-2,4.8866313E-2,-8.641679E-2,1.1458907E-3,2.8790912E-2,-8.105441E-3,-1.8982276E-2,-6.05E-6,-2.54E-6,6.101181E-6,7.161566E0,8.455492E0,2.2175081E1,-2.8865121E-2,-4.1553695E-2,5.0199525E-3,4.6266187E-3,1.429237E2,-8.091555E-4,6.2195074E-2,-1.5584863E-2,-1.0148419E-1,-3.0477766E-2,4.2495385E-2,5.7628218E-2,-1.9630589E-2,-4.047749E-3,8.163326E-2,1.4319917E-2,-6.9408424E-2,-3.310774E-2,4.803792E-2,-3.2228115E-3,9.898158E-2,-2.0353736E-2,1.0703214E-2,-1.0954009E-2,2.711981E-2,-1.5948905E-3,-7.1494E-2],"split_indices":[56,38,66,56,55,61,56,56,16,32,64,54,60,65,55,0,69,65,56,58,68,54,16,33,69,67,0,0,0,0,67,26,0,64,0,0,62,0,0,0,0,0,62,62,62,30,35,63,0,0,0,0,60,0,0,0,0,0,0,0,0,0,0,0,0,0,0,0,0,0,0,0,0,0,0],"split_type":[0,0,0,0,0,0,0,0,0,0,0,0,0,0,0,0,0,0,0,0,0,0,0,0,0,0,0,0,0,0,0,0,0,0,0,0,0,0,0,0,0,0,0,0,0,0,0,0,0,0,0,0,0,0,0,0,0,0,0,0,0,0,0,0,0,0,0,0,0,0,0,0,0,0,0],"sum_hessian":[3.6013574E2,2.8046378E2,7.9671974E1,1.3039777E2,1.5006602E2,5.7893593E1,2.1778378E1,1.6572483E1,1.1382528E2,2.1770117E1,1.2829591E2,5.0921623E1,6.9719677E0,9.465709E0,1.231267E1,2.7535055E0,1.3818977E1,9.579518E1,1.8030096E1,1.7821085E1,3.9490328E0,5.1822323E1,7.647359E1,4.5132286E1,5.789338E0,4.5712376E0,2.40073E0,1.402489E0,8.06322E0,2.92683E0,9.385839E0,1.2265819E1,1.5531583E0,8.115145E1,1.4643729E1,3.4132187E0,1.4616878E1,1.5591051E1,2.230033E0,2.6768885E0,1.2721444E0,2.0107887E0,4.9811535E1,2.6413042E1,5.0060543E1,4.275108E1,2.3812077E0,3.2550833E0,2.534255E0,3.3612106E0,1.2100271E0,1.6299833E0,7.755856E0,1.2281059E0,1.1037713E1,2.448167E1,5.666978E1,5.1136117E0,9.530117E0,1.3461512E1,1.1553662E0,6.292487E0,4.3519047E1,7.6364017E0,1.8776642E1,6.5055714E0,4.3554974E1,2.2078028E0,4.0543278E1,1.311324E0,1.0698837E0,1.0322815E0,2.2228017E0,2.3013942E0,5.454462E0],"tree_param":{"num_deleted":"0","num_feature":"70","num_nodes":"75","size_leaf_vector":"1"}},{"base_weights":[-4.5236023E-3,-2.6465252E-1,1.6557993E-1,3.2337673E-2,-3.7090948E-1,7.2564766E-2,6.113838E-1,-2.580804E-1,4.3930125E-1,-8.7061435E-2,-5.814756E-1,2.8089702E-1,-1.17873386E-1,-2.657974E-3,6.4216024E-1,-3.73154E-1,2.2199783E-2,5.9468645E-1,-1.5545171E-2,1.3172142E-1,-4.1808274E-1,1.7004807E-1,-6.8046266E-1,-1.0550553E-1,4.013003E-1,1.7539619E-1,-3.569851E-1,6.735725E-1,8.456654E-5,-4.7003573E-1,1.7836284E-2,8.157217E-2,-6.1081755E-3,-2.2504541E-1,2.7725676E-1,-5.33175E-1,1.7619025E-2,-1.6486775E-2,3.874959E-2,1.2062239E-1,-7.626766E-1,-3.1473392E-1,2.384849E-1,-1.9031978E-1,4.769136E-1,-1.9956914E-1,3.2261664E-1,-5.2147406E-1,3.3276176E-1,8.3987094E-2,-9.6143625E-4,-6.504243E-2,1.1982551E-2,1.8735465E-2,-4.8816644E-2,4.648097E-2,-1.0384073E-2,6.0329176E-3,-7.0380494E-2,2.5923971E-2,-1.09863235E-2,-9.346595E-2,-3.936147E-3,2.2966452E-2,-6.6338874E-2,4.204453E-2,-1.4611174E-2,-3.5027158E-2,1.1324379E-2,6.377272E-2,-1.4905484E-2,-3.8418375E-2,1.6507445E-2,5.6647852E-2,-1.4538737E-2,-7.7551134E-2,1.16437655E-2,5.0695695E-2,-9.75035E-3],"categories":[],"categories_nodes":[],"categories_segments":[],"categories_sizes":[],"default_left":[0,0,0,0,0,0,0,0,0,0,0,0,0,0,0,0,0,0,0,0,0,0,0,0,0,0,0,0,0,0,0,0,0,0,0,0,0,0,0,0,0,0,0,0,0,0,0,0,0,0,0,0,0,0,0,0,0,0,0,0,0,0,0,0,0,0,0,0,0,0,0,0,0,0,0,0,0,0,0],"id":17,"left_children":[1,3,5,7,9,11,13,15,17,19,21,23,25,-1,27,29,-1,31,-1,33,35,37,39,41,43,45,47,49,-1,51,-1,-1,-1,53,55,57,-1,-1,-1,59,61,63,65,67,69,71,73,75,77,-1,-1,-1,-1,-1,-1,-1,-1,-1,-1,-1,-1,-1,-1,-1,-1,-1,-1,-1,-1,-1,-1,-1,-1,-1,-1,-1,-1,-1,-1],"loss_changes":[1.675943E1,4.9024553E0,8.8406925E0,7.9918947E0,5.9000454E0,8.697135E0,9.455919E-1,3.1010628E0,3.605586E0,5.5402675E0,6.297756E0,5.433758E0,9.252491E0,0E0,7.246113E-1,2.925024E0,0E0,1.8622389E0,0E0,3.5630593E0,3.0920043E0,1.5649118E0,5.1463127E0,3.7443564E0,5.019067E0,4.4602885E0,1.057285E1,7.048807E-1,0E0,2.2444015E0,0E0,0E0,0E0,2.5420113E0,2.2111275E0,1.3055043E0,0E0,0E0,0E0,6.666187E-1,2.544918E-1,5.092249E0,1.5384771E0,9.9114984E-1,3.5066185E0,1.7628921E0,4.252832E0,5.769314E0,1.357316E0,0E0,0E0,0E0,0E0,0E0,0E0,0E0,0E0,0E0,0E0,0E0,0E0,0E0,0E0,0E0,0E0,0E0,0E0,0E0,0E0,0E0,0E0,0E0,0E0,0E0,0E0,0E0,0E0,0E0,0E0],"parents":[2147483647,0,0,1,1,2,2,3,3,4,4,5,5,6,6,7,7,8,8,9,9,10,10,11,11,12,12,14,14,15,15,17,17,19,19,20,20,21,21,22,22,23,23,24,24,25,25,26,26,27,27,29,29,33,33,34,34,35,35,39,39,40,40,41,41,42,42,43,43,44,44,45,45,46,46,47,47,48,48],"right_children":[2,4,6,8,10,12,14,16,18,20,22,24,26,-1,28,30,-1,32,-1,34,36,38,40,42,44,46,48,50,-1,52,-1,-1,-1,54,56,58,-1,-1,-1,60,62,64,66,68,70,72,74,76,78,-1,-1,-1,-1,-1,-1,-1,-1,-1,-1,-1,-1,-1,-1,-1,-1,-1,-1,-1,-1,-1,-1,-1,-1,-1,-1,-1,-1,-1,-1],"split_conditions":[7.4908504E0,3.5914704E-1,3.8997415E2,3.0680716E-1,3.969443E2,1.1807613E2,3.6676487E1,3.012639E2,2.9174873E3,5.365097E-1,6.86018E0,-9.2265403E-1,3.8392172E2,-2.657974E-3,3.1763293E2,1.8852992E4,2.2199783E-2,1.259668E1,-1.5545171E-2,9.171528E1,2.421507E-1,7.951893E0,1.8126884E2,2.6711706E1,1.7512215E2,7.618708E0,2.045085E2,5.189424E1,8.456654E-5,4.5834363E2,1.7836284E-2,8.157217E-2,-6.1081755E-3,8.730388E0,1.7394495E2,5.241064E0,1.7619025E-2,-1.6486775E-2,3.874959E-2,7.942927E-3,2.8419775E-1,4.5226175E2,1.1870637E-2,2.2893555E1,7.729113E-2,1.4609696E0,1.2980298E3,7.08727E2,8.611717E1,8.3987094E-2,-9.6143625E-4,-6.504243E-2,1.1982551E-2,1.8735465E-2,-4.8816644E-2,4.648097E-2,-1.0384073E-2,6.0329176E-3,-7.0380494E-2,2.5923971E-2,-1.09863235E-2,-9.346595E-2,-3.936147E-3,2.2966452E-2,-6.6338874E-2,4.204453E-2,-1.4611174E-2,-3.5027158E-2,1.1324379E-2,6.377272E-2,-1.4905484E-2,-3.8418375E-2,1.6507445E-2,5.6647852E-2,-1.4538737E-2,-7.7551134E-2,1.16437655E-2,5.0695695E-2,-9.75035E-3],"split_indices":[32,67,65,67,64,68,69,68,69,41,30,29,54,0,68,69,0,12,0,61,58,55,60,17,54,31,60,59,0,64,0,0,0,55,61,55,0,0,0,62,58,54,62,3,46,18,66,54,61,0,0,0,0,0,0,0,0,0,0,0,0,0,0,0,0,0,0,0,0,0,0,0,0,0,0,0,0,0,0],"split_type":[0,0,0,0,0,0,0,0,0,0,0,0,0,0,0,0,0,0,0,0,0,0,0,0,0,0,0,0,0,0,0,0,0,0,0,0,0,0,0,0,0,0,0,0,0,0,0,0,0,0,0,0,0,0,0,0,0,0,0,0,0,0,0,0,0,0,0,0,0,0,0,0,0,0,0,0,0,0,0],"sum_hessian":[3.48899E2,1.346498E2,2.1424918E2,3.8230324E1,9.641948E1,1.9169449E2,2.2554686E1,2.5511995E1,1.27183275E1,5.009381E1,4.632567E1,8.814361E1,1.0355088E2,1.2397112E0,2.1314974E1,2.2131395E1,3.3805993E0,9.454348E0,3.2639804E0,3.559743E1,1.4496378E1,4.138367E0,4.21873E1,2.1381454E1,6.676215E1,4.8303654E1,5.524723E1,1.9603931E1,1.7110423E0,1.99205E1,2.2108958E0,7.6517625E0,1.8025851E0,7.939509E0,2.7657923E1,1.2742811E1,1.753567E0,1.8786389E0,2.2597282E0,3.2743795E0,3.891292E1,1.4088211E1,7.293244E0,4.987023E0,6.1775127E1,1.2114568E1,3.6189087E1,4.7563793E1,7.6834354E0,1.848712E1,1.1168114E0,1.8337767E1,1.582733E0,3.2464736E0,4.693035E0,2.0487316E1,7.1706076E0,1.139148E0,1.1603663E1,2.070549E0,1.2038305E0,3.708236E1,1.830562E0,5.4484634E0,8.639748E0,5.878575E0,1.414669E0,3.3958817E0,1.5911411E0,5.8232033E1,3.5430949E0,9.479409E0,2.6351585E0,2.6356663E1,9.832425E0,3.9018578E1,8.545215E0,6.0635505E0,1.6198852E0],"tree_param":{"num_deleted":"0","num_feature":"70","num_nodes":"79","size_leaf_vector":"1"}},{"base_weights":[5.1236976E-2,-2.3453905E-1,2.3284738E-1,9.0831004E-2,-3.356598E-1,5.126872E-1,6.928002E-2,3.0845752E-1,-2.5821057E-1,-4.780118E-1,5.936472E-2,6.3728255E-1,3.611432E-3,-1.8988642E-1,2.7303454E-1,-1.6571863E-1,4.6620032E-1,1.5340216E-2,-3.676585E-1,-5.724571E-1,1.0916218E-1,4.6128336E-1,-2.848157E-1,-9.9495515E-2,6.9074345E-1,2.4812827E-1,-2.2554024E-1,-4.4564134E-1,1.11555904E-1,4.3700144E-1,-1.6001764E-1,1.29148085E-2,-2.6833314E-1,-1.0650053E-2,5.285046E-1,1.5547707E-2,-5.8656685E-2,-2.8788306E-2,-7.2630054E-1,3.662877E-1,-3.1478327E-2,6.016348E-1,-1.7313786E-2,2.4120146E-1,-5.017869E-1,-1.8469254E-2,5.8555217E-3,-6.1365836E-3,7.152821E-1,-1.50472475E-2,3.5902908E-1,1.5132899E-2,-3.3529213E-1,1.9966805E-1,-6.166365E-1,2.7135393E-1,-2.4472056E-1,5.642121E-1,-5.464889E-2,2.4375993E-1,-4.1423133E-1,3.721171E-3,-3.7615046E-2,6.699069E-2,-2.2727768E-3,-4.4336952E-2,3.998673E-2,-9.459636E-2,1.1467968E-2,-4.3888805E-3,5.1340275E-2,-1.4612807E-3,7.8222476E-2,-3.1348425E-3,3.373294E-2,-6.762179E-2,4.60646E-3,-4.224074E-3,8.9200236E-2,-3.4328068E-3,4.8382055E-2,1.1967939E-2,-5.51924E-2,-1.7769955E-2,3.9566346E-2,-8.0640964E-2,1.1457793E-2,-1.1963004E-2,4.7213625E-2,-3.785037E-2,9.76841E-3,4.8627453E-3,8.0701225E-2,